{"learner":{"attributes":{"best_iteration":"19","best_ntree_limit":"20","scikit_learn":"{\"use_label_encoder\": null, \"n_estimators\": 20, \"objective\": \"binary:logistic\", \"max_depth\": 3, \"max_leaves\": null, \"max_bin\": null, \"grow_policy\": null, \"learning_rate\": 0.01, \"verbosity\": null, \"booster\": \"gbtree\", \"tree_method\": null, \"gamma\": 0.03, \"min_child_weight\": null, \"max_delta_step\": null, \"subsample\": 0.8, \"sampling_method\": null, \"colsample_bytree\": 1, \"colsample_bylevel\": null, \"colsample_bynode\": null, \"reg_alpha\": null, \"reg_lambda\": null, \"scale_pos_weight\": null, \"base_score\": null, \"missing\": NaN, \"num_parallel_tree\": null, \"random_state\": 1, \"n_jobs\": null, \"monotone_constraints\": null, \"interaction_constraints\": null, \"importance_type\": null, \"gpu_id\": null, \"validate_parameters\": null, \"predictor\": null, \"enable_categorical\": false, \"feature_types\": null, \"max_cat_to_onehot\": null, \"max_cat_threshold\": null, \"eval_metric\": null, \"early_stopping_rounds\": null, \"callbacks\": null, \"classes_\": [0.0, 1.0], \"n_classes_\": 2, \"evals_result_\": {\"validation_0\": {\"error\": [0.44926155312053356, 0.4316341114816579, 0.4202000952834683, 0.4287756074321105, 0.4316341114816579, 0.4173415912339209, 0.4168651738923297, 0.4101953311100524, 0.4106717484516436, 0.4144830871843735, 0.40971891376846115, 0.41257741781800855, 0.4078132444020962, 0.4078132444020962, 0.4106717484516436, 0.41210100047641735, 0.4111481657932349, 0.40543115769414007, 0.401143401619819, 0.4068604097189138], \"logloss\": [0.6929250341361338, 0.6926883582900739, 0.6924965567904577, 0.6923749885597702, 0.6921290731986629, 0.6918873535331628, 0.6916618246075765, 0.6915050133061784, 0.6912710875656106, 0.691105092349877, 0.6909640095755281, 0.6908022854486041, 0.690630329143666, 0.690485841180666, 0.6903725421218545, 0.6902533136645403, 0.6901171122521886, 0.6899488259066054, 0.689839894598924, 0.6896564522602832], \"aucpr\": [0.5711480169662791, 0.6118603781635954, 0.619543722452251, 0.6238661005086906, 0.6263418016738904, 0.6305886430261339, 0.6330357582971895, 0.6398171479439624, 0.63896516486725, 0.6432194031852051, 0.6457325629490258, 0.6431102469876939, 0.6481190058399876, 0.6470559169865276, 0.6482621255844967, 0.6507895757869139, 0.6546653916899985, 0.6555691228251309, 0.6546382283257681, 0.6518180940795957]}, \"validation_1\": {\"error\": [0.48777777777777775, 0.48777777777777775, 0.5077777777777778, 0.49666666666666665, 0.4888888888888889, 0.5011111111111111, 0.4911111111111111, 0.4888888888888889, 0.4811111111111111, 0.4866666666666667, 0.4777777777777778, 0.4855555555555556, 0.49333333333333335, 0.4922222222222222, 0.49444444444444446, 0.49333333333333335, 0.4922222222222222, 0.4922222222222222, 0.49777777777777776, 0.49777777777777776], \"logloss\": [0.6931516355276108, 0.6930962011549208, 0.6930834523836772, 0.6930626914898554, 0.6929605083995395, 0.692925083703465, 0.6928447018067042, 0.6927870098087523, 0.6926945253213247, 0.6926993961466683, 0.6926833941539129, 0.6926378161377377, 0.6926240259408951, 0.6926427027251986, 0.6925930917925305, 0.692551292710834, 0.6925887327724033, 0.6925936940643522, 0.6925827274719875, 0.6925263455179003], \"aucpr\": [0.47826413713015115, 0.5050860481150063, 0.5078865473229655, 0.510372317012936, 0.5142018594843341, 0.52258489355213, 0.525405939001566, 0.5195752411204905, 0.5247763180690025, 0.5244168315479888, 0.5220838922284989, 0.5217907667334495, 0.5213658129302452, 0.5180724028806646, 0.5177861515904076, 0.5166254956288764, 0.5142202617395353, 0.5168115885234156, 0.5149826575417875, 0.5171717474284068]}}, \"_estimator_type\": \"classifier\"}"},"feature_names":["hour","minute","second","total_amount","bull_amount","bear_amount","bull_ratio","bear_ratio"],"feature_types":["int","int","int","float","float","float","float","float"],"gradient_booster":{"model":{"gbtree_model_param":{"num_parallel_tree":"1","num_trees":"20","size_leaf_vector":"0"},"tree_info":[0,0,0,0,0,0,0,0,0,0,0,0,0,0,0,0,0,0,0,0],"trees":[{"base_weights":[8.096677E-2,1.2726055E-1,-3.3734939E-1,-7.867495E-2,2.2485207E-1,-5.4867256E-1,1.0526316E-1,3.846154E-2,-7.605634E-1,7.387387E-1,1.6097023E-1,1E0,-6.4220184E-1,9.0909094E-1,-3.5897437E-1],"categories":[],"categories_nodes":[],"categories_segments":[],"categories_sizes":[],"default_left":[1,1,1,1,1,1,1,0,0,0,0,0,0,0,0],"id":0,"left_children":[1,3,5,7,9,11,13,-1,-1,-1,-1,-1,-1,-1,-1],"loss_changes":[8.05538E0,7.519104E0,3.9394288E0,9.67404E0,8.20299E0,4.734107E0,5.64397E0,0E0,0E0,0E0,0E0,0E0,0E0,0E0,0E0],"parents":[2147483647,0,0,1,1,2,2,3,3,4,4,5,5,6,6],"right_children":[2,4,6,8,10,12,14,-1,-1,-1,-1,-1,-1,-1,-1],"split_conditions":[2.1278545E1,5.197055E0,1.42519E1,2.7849998E0,1.14713E1,1.45E0,1E1,3.8461538E-4,-7.6056337E-3,7.387387E-3,1.6097022E-3,1E-2,-6.422018E-3,9.090909E-3,-3.5897435E-3],"split_indices":[3,5,4,6,3,6,0,0,0,0,0,0,0,0,0],"split_type":[0,0,0,0,0,0,0,0,0,0,0,0,0,0,0],"sum_hessian":[4.1275E2,3.7225E2,4.05E1,1.1975E2,2.525E2,2.725E1,1.325E1,1.03E2,1.675E1,2.675E1,2.2575E2,1E0,2.625E1,4.5E0,8.75E0],"tree_param":{"num_deleted":"0","num_feature":"8","num_nodes":"15","size_leaf_vector":"0"}},{"base_weights":[5.4086268E-2,1.0941869E-1,-2.5886264E-1,1.740217E-2,3.85015E-1,-9.803888E-2,-8.049906E-1,7.1369216E-2,-4.4408193E-1,1.3763121E0,2.3897564E-1,-3.310401E-1,2.3948875E-1,-9.207125E-1,2.213999E-1],"categories":[],"categories_nodes":[],"categories_segments":[],"categories_sizes":[],"default_left":[1,1,1,1,1,1,1,0,0,0,0,0,0,0,0],"id":1,"left_children":[1,3,5,7,9,11,13,-1,-1,-1,-1,-1,-1,-1,-1],"loss_changes":[7.2838006E0,9.040251E0,5.476311E0,6.718651E0,1.2591666E1,4.0114717E0,1.89639E0,0E0,0E0,0E0,0E0,0E0,0E0,0E0,0E0],"parents":[2147483647,0,0,1,1,2,2,3,3,4,4,5,5,6,6],"right_children":[2,4,6,8,10,12,14,-1,-1,-1,-1,-1,-1,-1,-1],"split_conditions":[1.9553734E1,1.573152E1,4.75E1,7.579885E0,1.6016834E1,3.05E1,1.55438E1,7.1369216E-4,-4.4408194E-3,1.3763121E-2,2.3897565E-3,-3.310401E-3,2.3948874E-3,-9.207125E-3,2.213999E-3],"split_indices":[3,3,2,5,3,2,4,0,0,0,0,0,0,0,0],"split_type":[0,0,0,0,0,0,0,0,0,0,0,0,0,0,0],"sum_hessian":[4.179988E2,3.5574924E2,6.2249573E1,2.674993E2,8.824994E1,4.8999664E1,1.3249906E1,2.4024933E2,2.7249979E1,1.0249993E1,7.799994E1,2.8999811E1,1.9999855E1,1.1999919E1,1.2499872E0],"tree_param":{"num_deleted":"0","num_feature":"8","num_nodes":"15","size_leaf_vector":"0"}},{"base_weights":[5.5604793E-2,1.0777348E-1,-2.4199969E-1,6.380162E-2,8.930215E-1,-1.2492793E0,-1.7110893E-1,-1.5505204E-1,1.7294928E-1,1.04997E-1,1.0799135E0,3.8132584E-1,-3.1640694E-1],"categories":[],"categories_nodes":[],"categories_segments":[],"categories_sizes":[],"default_left":[1,1,1,1,1,0,1,0,0,0,0,0,0],"id":2,"left_children":[1,3,5,7,9,-1,11,-1,-1,-1,-1,-1,-1],"loss_changes":[6.577856E0,1.2364703E1,4.302648E0,8.190285E0,2.6848145E0,0E0,4.956705E0,0E0,0E0,0E0,0E0,0E0,0E0],"parents":[2147483647,0,0,1,1,2,2,3,3,4,4,6,6],"right_children":[2,4,6,8,10,-1,12,-1,-1,-1,-1,-1,-1],"split_conditions":[9.744946E0,9.17538E0,9.840361E0,2.05E1,1E1,-1.2492793E-2,7.95935E0,-1.5505203E-3,1.7294928E-3,1.04997E-3,1.0799135E-2,3.8132584E-3,-3.1640693E-3],"split_indices":[5,5,5,1,2,0,4,0,0,0,0,0,0],"split_type":[0,0,0,0,0,0,0,0,0,0,0,0,0],"sum_hessian":[4.2099722E2,3.587482E2,6.2249035E1,3.407484E2,1.7999783E1,2.9999826E0,5.9249054E1,1.13249504E2,2.274989E2,3.749966E0,1.4249816E1,1.1999925E1,4.7249126E1],"tree_param":{"num_deleted":"0","num_feature":"8","num_nodes":"13","size_leaf_vector":"0"}},{"base_weights":[6.2598936E-2,8.800567E-1,3.6880586E-2,1.021565E0,-2.1862666E-1,5.3914085E-2,-8.927114E-1,1.199588E0,2.8463176E-1,1.0874337E-1,-2.2744864E-1,-1.3803691E0,-3.971901E-1],"categories":[],"categories_nodes":[],"categories_segments":[],"categories_sizes":[],"default_left":[1,1,1,1,0,1,1,0,0,0,0,0,0],"id":3,"left_children":[1,3,5,7,-1,9,11,-1,-1,-1,-1,-1,-1],"loss_changes":[8.613428E0,2.1667461E0,6.377781E0,1.1344566E0,0E0,6.0951557E0,1.2036405E0,0E0,0E0,0E0,0E0,0E0,0E0],"parents":[2147483647,0,0,1,1,2,2,3,3,5,5,6,6],"right_children":[2,4,6,8,-1,10,12,-1,-1,-1,-1,-1,-1],"split_conditions":[2.935605E0,7.9550896E0,3.14E0,1.75E1,-2.1862665E-3,9.744974E0,8.5E0,1.1995879E-2,2.8463176E-3,1.0874337E-3,-2.2744865E-3,-1.3803691E-2,-3.971901E-3],"split_indices":[5,3,6,0,0,5,0,0,0,0,0,0,0],"split_type":[0,0,0,0,0,0,0,0,0,0,0,0,0],"sum_hessian":[4.102454E2,1.1499968E1,3.9874542E2,1.0249982E1,1.249986E0,3.9249548E2,6.2499394E0,7.7499847E0,2.499997E0,3.289972E2,6.3498314E1,2.2499774E0,3.9999619E0],"tree_param":{"num_deleted":"0","num_feature":"8","num_nodes":"13","size_leaf_vector":"0"}},{"base_weights":[7.853669E-2,1.2774093E-1,-3.8508606E-1,3.8343273E-2,3.2961416E-1,-5.5991745E-1,2.0412646E-1,8.179423E-2,-4.8282406E-1,1.3172052E0,2.1416475E-1,6.6782314E-1,-6.327301E-1,8.592494E-1,-4.295328E-1],"categories":[],"categories_nodes":[],"categories_segments":[],"categories_sizes":[],"default_left":[1,1,1,1,1,1,1,0,0,0,0,0,0,0,0],"id":4,"left_children":[1,3,5,7,9,11,13,-1,-1,-1,-1,-1,-1,-1,-1],"loss_changes":[9.618775E0,6.8451414E0,4.286138E0,6.0291066E0,1.3000593E1,3.2383623E0,4.5202436E0,0E0,0E0,0E0,0E0,0E0,0E0,0E0,0E0],"parents":[2147483647,0,0,1,1,2,2,3,3,4,4,5,5,6,6],"right_children":[2,4,6,8,10,12,14,-1,-1,-1,-1,-1,-1,-1,-1],"split_conditions":[2.1258486E1,1.568266E1,1.487299E1,2.755E0,1.6016834E1,1.48E0,1.6030325E1,8.179423E-4,-4.8282403E-3,1.3172052E-2,2.1416475E-3,6.678231E-3,-6.3273013E-3,8.592494E-3,-4.2953277E-3],"split_indices":[3,3,4,6,3,6,4,0,0,0,0,0,0,0,0],"split_type":[0,0,0,0,0,0,0,0,0,0,0,0,0,0,0],"sum_hessian":[4.1849396E2,3.7899564E2,3.9498306E1,2.63498E2,1.15497665E2,3.04985E1,8.999807E0,2.439983E2,1.9499662E1,1.0999039E1,1.0449863E2,1.249981E0,2.924852E1,4.24992E0,4.7498875E0],"tree_param":{"num_deleted":"0","num_feature":"8","num_nodes":"15","size_leaf_vector":"0"}},{"base_weights":[6.342398E-2,-1.2804416E-1,1.5229066E-1,-4.166968E-1,6.0086165E-2,2.0273799E-1,-1.24640934E-1,-5.418218E-1,5.209454E-1,1.7526661E-1,-5.7927424E-1,1.5364754E-1,1.0632749E0,-1.6085662E-2,-1.098084E0],"categories":[],"categories_nodes":[],"categories_segments":[],"categories_sizes":[],"default_left":[1,1,1,1,1,1,1,0,0,0,0,0,0,0,0],"id":5,"left_children":[1,3,5,7,9,11,13,-1,-1,-1,-1,-1,-1,-1,-1],"loss_changes":[7.1826906E0,7.301688E0,4.048643E0,6.5002537E0,6.140044E0,1.0143962E1,4.7373004E0,0E0,0E0,0E0,0E0,0E0,0E0,0E0,0E0],"parents":[2147483647,0,0,1,1,2,2,3,3,4,4,5,5,6,6],"right_children":[2,4,6,8,10,12,14,-1,-1,-1,-1,-1,-1,-1,-1],"split_conditions":[1.95E1,8.5E0,9.744946E0,9.529295E0,1.0044695E1,9.17271E0,2.2849998E0,-5.4182177E-3,5.2094543E-3,1.7526661E-3,-5.792742E-3,1.5364754E-3,1.0632749E-2,-1.6085661E-4,-1.098084E-2],"split_indices":[1,0,5,5,5,5,6,0,0,0,0,0,0,0,0],"split_type":[0,0,0,0,0,0,0,0,0,0,0,0,0,0,0],"sum_hessian":[4.1998926E2,1.3299767E2,2.8699158E2,5.1999187E1,8.0998474E1,2.4299437E2,4.3997227E1,4.6249504E1,5.7496843E0,6.9249146E1,1.1749326E1,2.3099547E2,1.199889E1,4.049759E1,3.4996376E0],"tree_param":{"num_deleted":"0","num_feature":"8","num_nodes":"15","size_leaf_vector":"0"}},{"base_weights":[9.413333E-2,1.4088853E-1,-2.4837725E-1,-6.6473715E-2,2.273984E-1,-1.0774822E0,-7.0784904E-2,-4.1987702E-1,1.7150216E-1,1.7724669E-1,5.91073E-1,-2.8290185E-1,-1.3500537E0,1.0854328E0,-1.6295959E-1],"categories":[],"categories_nodes":[],"categories_segments":[],"categories_sizes":[],"default_left":[1,1,1,1,1,1,1,0,0,0,0,0,0,0,0],"id":6,"left_children":[1,3,5,7,9,11,13,-1,-1,-1,-1,-1,-1,-1,-1],"loss_changes":[6.652613E0,6.5491676E0,7.285306E0,9.154835E0,4.5870314E0,1.5130463E0,4.679275E0,0E0,0E0,0E0,0E0,0E0,0E0,0E0,0E0],"parents":[2147483647,0,0,1,1,2,2,3,3,4,4,5,5,6,6],"right_children":[2,4,6,8,10,12,14,-1,-1,-1,-1,-1,-1,-1,-1],"split_conditions":[1.020777E1,1.85E1,1.057306E1,8.5E0,8.76245E0,1.3E1,1.0675344E1,-4.19877E-3,1.7150216E-3,1.7724668E-3,5.9107295E-3,-2.8290185E-3,-1.3500537E-2,1.0854327E-2,-1.6295959E-3],"split_indices":[5,1,5,0,5,0,5,0,0,0,0,0,0,0,0],"split_type":[0,0,0,0,0,0,0,0,0,0,0,0,0,0,0],"sum_hessian":[4.122358E2,3.6323962E2,4.89962E1,1.06998405E2,2.562412E2,7.7495594E0,4.124664E1,4.2749454E1,6.424895E1,2.264944E2,2.974681E1,2.499909E0,5.2496505E0,2.2498038E0,3.8996838E1],"tree_param":{"num_deleted":"0","num_feature":"8","num_nodes":"15","size_leaf_vector":"0"}},{"base_weights":[1.1030301E-1,1.2834807E-1,-6.257951E-1,9.394921E-1,9.9038236E-2,-1.3241023E0,-6.7541875E-2,2.1503939E-1,1.1553546E0,1.5599841E-1,-1.1870462E-1,2.9010248E-1,-7.9157174E-1],"categories":[],"categories_nodes":[],"categories_segments":[],"categories_sizes":[],"default_left":[1,1,1,1,1,0,1,0,0,0,0,0,0],"id":7,"left_children":[1,3,5,7,9,-1,11,-1,-1,-1,-1,-1,-1],"loss_changes":[5.675516E0,9.701628E0,3.9061084E0,1.9799309E0,4.9638696E0,0E0,1.9774219E0,0E0,0E0,0E0,0E0,0E0,0E0],"parents":[2147483647,0,0,1,1,2,2,3,3,4,4,6,6],"right_children":[2,4,6,8,10,-1,12,-1,-1,-1,-1,-1,-1],"split_conditions":[3.0549998E0,3.11654E0,8.330275E0,2.185E0,4.75E1,-1.3241023E-2,3.335E0,2.1503938E-3,1.15535455E-2,1.559984E-3,-1.1870462E-3,2.9010247E-3,-7.915718E-3],"split_indices":[6,5,4,6,2,0,6,0,0,0,0,0,0],"split_type":[0,0,0,0,0,0,0,0,0,0,0,0,0],"sum_hessian":[4.2023175E2,4.1098236E2,9.249386E0,1.324956E1,3.9773282E2,3.4997525E0,5.7496333E0,3.4998746E0,9.749685E0,3.1548697E2,8.224586E1,4.249739E0,1.4998939E0],"tree_param":{"num_deleted":"0","num_feature":"8","num_nodes":"13","size_leaf_vector":"0"}},{"base_weights":[8.556782E-2,-1.1433577E-1,1.8158159E-1,-2.5277558E-1,1.5903181E-1,2.3147646E-1,-2.612869E-1,3.563652E-1,-4.142427E-1,3.6609063E-1,-5.378209E-1,8.5673916E-1,1.9621249E-1,1.1191872E0,-3.6380616E-1],"categories":[],"categories_nodes":[],"categories_segments":[],"categories_sizes":[],"default_left":[1,1,1,1,1,1,1,0,0,0,0,0,0,0,0],"id":8,"left_children":[1,3,5,7,9,11,13,-1,-1,-1,-1,-1,-1,-1,-1],"loss_changes":[8.014447E0,5.1774626E0,6.285921E0,9.048559E0,6.869998E0,5.42661E0,4.510942E0,0E0,0E0,0E0,0E0,0E0,0E0,0E0,0E0],"parents":[2147483647,0,0,1,1,2,2,3,3,4,4,5,5,6,6],"right_children":[2,4,6,8,10,12,14,-1,-1,-1,-1,-1,-1,-1,-1],"split_conditions":[1.95E1,1.55E1,2.1243595E1,5.141425E0,1.016526E1,2.5E0,2.05E1,3.563652E-3,-4.142427E-3,3.660906E-3,-5.3782086E-3,8.567392E-3,1.9621248E-3,1.1191872E-2,-3.6380615E-3],"split_indices":[1,0,3,4,4,2,1,0,0,0,0,0,0,0,0],"split_type":[0,0,0,0,0,0,0,0,0,0,0,0,0,0,0],"sum_hessian":[4.154789E2,1.3474498E2,2.8073395E2,8.949693E1,4.524804E1,2.5273715E2,2.7996792E1,1.849957E1,7.099736E1,3.5249004E1,9.999036E0,1.2249381E1,2.4048778E2,1.2498647E0,2.6746925E1],"tree_param":{"num_deleted":"0","num_feature":"8","num_nodes":"15","size_leaf_vector":"0"}},{"base_weights":[6.386668E-2,8.299541E-2,-7.564245E-1,6.523283E-1,5.249841E-2,-9.546151E-1,7.676784E-3,8.876969E-1,-6.6704583E-1,-5.2881503E-1,8.046374E-2,-1.2338232E0,-5.1852304E-1],"categories":[],"categories_nodes":[],"categories_segments":[],"categories_sizes":[],"default_left":[1,1,1,1,1,1,0,0,0,0,0,0,0],"id":9,"left_children":[1,3,5,7,9,11,-1,-1,-1,-1,-1,-1,-1],"loss_changes":[6.7075243E0,7.1665554E0,1.4836874E0,7.112873E0,6.459434E0,3.0376387E-1,0E0,0E0,0E0,0E0,0E0,0E0,0E0],"parents":[2147483647,0,0,1,1,2,2,3,3,4,4,5,5],"right_children":[2,4,6,8,10,12,-1,-1,-1,-1,-1,-1,-1],"split_conditions":[3.0549998E0,3.3413649E0,2.05E1,5.04282E0,8.498535E0,3.35E1,7.6767836E-5,8.876969E-3,-6.6704582E-3,-5.28815E-3,8.046373E-4,-1.2338231E-2,-5.18523E-3],"split_indices":[6,5,0,4,3,1,0,0,0,0,0,0,0],"split_type":[0,0,0,0,0,0,0,0,0,0,0,0,0],"sum_hessian":[4.2247137E2,4.137224E2,8.748953E0,1.9998106E1,3.937243E2,6.749067E0,1.999886E0,1.7248293E1,2.7498116E0,1.724954E1,3.7647476E2,2.9994175E0,3.7496493E0],"tree_param":{"num_deleted":"0","num_feature":"8","num_nodes":"13","size_leaf_vector":"0"}},{"base_weights":[7.829266E-2,1.0219603E-1,-1.0078843E0,1.1501513E0,8.345213E-2,-1.1068903E0,-2.0785245E-1,3.1966853E-1,1.4056314E0,-4.9661326E-1,1.1052896E-1,-1.4321944E0,-2.7947578E-1],"categories":[],"categories_nodes":[],"categories_segments":[],"categories_sizes":[],"default_left":[1,1,1,1,1,1,0,0,0,0,0,0,0],"id":10,"left_children":[1,3,5,7,9,11,-1,-1,-1,-1,-1,-1,-1],"loss_changes":[1.1143079E1,8.094473E0,5.024681E-1,1.0886383E0,6.505823E0,1.7526608E0,0E0,0E0,0E0,0E0,0E0,0E0,0E0],"parents":[2147483647,0,0,1,1,2,2,3,3,4,4,5,5],"right_children":[2,4,6,8,10,12,-1,-1,-1,-1,-1,-1,-1],"split_conditions":[3.0549998E0,6.10736E0,3.455E0,2.61482E0,3.617275E0,1.626086E1,-2.0785246E-3,3.1966853E-3,1.4056314E-2,-4.9661323E-3,1.1052896E-3,-1.4321943E-2,-2.7947577E-3],"split_indices":[6,3,6,4,4,3,0,0,0,0,0,0,0],"split_type":[0,0,0,0,0,0,0,0,0,0,0,0,0],"sum_hessian":[4.2421872E2,4.1597043E2,8.2483E0,6.2487183E0,4.097217E2,6.998642E0,1.2496581E0,1.9996741E0,4.2490444E0,1.7499083E1,3.9222263E2,4.4989285E0,2.4997134E0],"tree_param":{"num_deleted":"0","num_feature":"8","num_nodes":"13","size_leaf_vector":"0"}},{"base_weights":[7.959139E-2,1.0372606E-1,-8.990976E-1,-5.0496083E-2,1.7554085E-1,-1.4653728E0,-4.6270752E-1,-3.647649E-1,7.261276E-2,2.3093635E-1,-1.4810038E-1,1.3587293E-1,-9.8301876E-1],"categories":[],"categories_nodes":[],"categories_segments":[],"categories_sizes":[],"default_left":[1,1,1,1,1,0,1,0,0,0,0,0,0],"id":11,"left_children":[1,3,5,7,9,-1,11,-1,-1,-1,-1,-1,-1],"loss_changes":[1.0048408E1,4.574361E0,1.8540974E0,5.1235514E0,5.080558E0,0E0,2.3911014E0,0E0,0E0,0E0,0E0,0E0,0E0],"parents":[2147483647,0,0,1,1,2,2,3,3,4,4,6,6],"right_children":[2,4,6,8,10,-1,12,-1,-1,-1,-1,-1,-1],"split_conditions":[3.0549998E0,1.95E1,8.330275E0,5.27892E0,9.744946E0,-1.4653727E-2,1.8227306E1,-3.647649E-3,7.261276E-4,2.3093633E-3,-1.4810037E-3,1.3587293E-3,-9.830187E-3],"split_indices":[6,1,4,5,5,0,3,0,0,0,0,0,0],"split_type":[0,0,0,0,0,0,0,0,0,0,0,0,0],"sum_hessian":[4.2046518E2,4.1121844E2,9.246714E0,1.3074362E2,2.8047482E2,2.9982004E0,6.248513E0,3.6247944E1,9.449568E1,2.3972855E2,4.0746284E1,3.2492957E0,2.9992175E0],"tree_param":{"num_deleted":"0","num_feature":"8","num_nodes":"13","size_leaf_vector":"0"}},{"base_weights":[5.575408E-2,8.687813E-2,-4.508016E-1,5.8909204E-2,8.026927E-1,1.4079717E-1,-8.787261E-1,1.1888124E-1,-1.6734846E-1,1.3236369E0,4.0982062E-1,-1.0678412E0,5.6158465E-1,-2.3497845E-1,-1.2187285E0],"categories":[],"categories_nodes":[],"categories_segments":[],"categories_sizes":[],"default_left":[1,1,1,1,1,1,1,0,0,0,0,0,0,0,0],"id":12,"left_children":[1,3,5,7,9,11,13,-1,-1,-1,-1,-1,-1,-1,-1],"loss_changes":[6.735158E0,7.9802203E0,6.3884697E0,5.270669E0,2.527195E0,6.3205137E0,2.8867989E0,0E0,0E0,0E0,0E0,0E0,0E0,0E0,0E0],"parents":[2147483647,0,0,1,1,2,2,3,3,4,4,5,5,6,6],"right_children":[2,4,6,8,10,12,14,-1,-1,-1,-1,-1,-1,-1,-1],"split_conditions":[1.27698555E1,1.1536415E1,1.05E1,4.75E1,7.771615E0,2.259531E1,9.7452545E0,1.1888124E-3,-1.6734846E-3,1.3236369E-2,4.0982063E-3,-1.0678411E-2,5.6158463E-3,-2.3497844E-3,-1.2187285E-2],"split_indices":[4,4,0,2,5,3,5,0,0,0,0,0,0,0,0],"split_type":[0,0,0,0,0,0,0,0,0,0,0,0,0,0,0],"sum_hessian":[4.2370926E2,3.9996304E2,2.3746237E1,3.859646E2,1.3998445E1,1.0248637E1,1.3497601E1,3.0547083E2,8.049377E1,4.999728E0,8.998716E0,2.249531E0,7.9991055E0,5.249502E0,8.248098E0],"tree_param":{"num_deleted":"0","num_feature":"8","num_nodes":"15","size_leaf_vector":"0"}},{"base_weights":[8.116764E-2,1.1794875E0,6.7775615E-2,3.9598304E-1,1.4020239E0,-1.1510262E-1,1.3781953E-1,-4.088425E-1,1.0859242E-1,2.1187252E-1,-2.318922E-1],"categories":[],"categories_nodes":[],"categories_segments":[],"categories_sizes":[],"default_left":[1,1,1,0,0,1,1,0,0,0,0],"id":13,"left_children":[1,3,5,-1,-1,7,9,-1,-1,-1,-1],"loss_changes":[6.0970583E0,3.1625414E-1,5.344067E0,0E0,0E0,7.6494236E0,8.295942E0,0E0,0E0,0E0,0E0],"parents":[2147483647,0,0,1,1,2,2,5,5,6,6],"right_children":[2,4,6,-1,-1,8,10,-1,-1,-1,-1],"split_conditions":[2.551855E0,4E0,5.197055E0,3.9598304E-3,1.4020239E-2,2.65E1,1.02122345E1,-4.088425E-3,1.0859242E-3,2.118725E-3,-2.318922E-3],"split_indices":[5,0,5,0,0,1,5,0,0,0,0],"split_type":[0,0,0,0,0,0,0,0,0,0,0],"sum_hessian":[4.189549E2,3.9979386E0,4.1495697E2,1.4991499E0,2.4987886E0,1.1473946E2,3.002175E2,4.9245808E1,6.549365E1,2.5047456E2,4.9742947E1],"tree_param":{"num_deleted":"0","num_feature":"8","num_nodes":"11","size_leaf_vector":"0"}},{"base_weights":[6.0445417E-2,7.865437E-2,-7.3419964E-1,6.630612E-2,1.1493537E0,-1.2524606E0,-2.8245488E-1,9.170799E-2,-3.7425146E-1,2.2033821E-1,1.4181639E0,1.1408655E-1,-1.08227E0],"categories":[],"categories_nodes":[],"categories_segments":[],"categories_sizes":[],"default_left":[1,1,1,1,1,0,1,0,0,0,0,0,0],"id":14,"left_children":[1,3,5,7,9,-1,11,-1,-1,-1,-1,-1,-1],"loss_changes":[6.28979E0,5.502534E0,1.9277349E0,4.714423E0,8.736415E-1,0E0,2.1843047E0,0E0,0E0,0E0,0E0,0E0,0E0],"parents":[2147483647,0,0,1,1,2,2,3,3,4,4,6,6],"right_children":[2,4,6,8,10,-1,12,-1,-1,-1,-1,-1,-1],"split_conditions":[3.0549998E0,2.9850001E0,1.253861E1,1.2761385E1,2.9E1,-1.2524606E-2,4.55E1,9.1707986E-4,-3.7425144E-3,2.203382E-3,1.4181639E-2,1.1408655E-3,-1.08227E-2],"split_indices":[6,6,3,4,1,0,2,0,0,0,0,0,0],"split_type":[0,0,0,0,0,0,0,0,0,0,0,0,0],"sum_hessian":[4.296973E2,4.2095236E2,8.744926E0,4.1720276E2,3.7496219E0,3.247155E0,5.4977713E0,3.9520752E2,2.1995216E1,1.2498353E0,2.4997866E0,4.2486744E0,1.249097E0],"tree_param":{"num_deleted":"0","num_feature":"8","num_nodes":"13","size_leaf_vector":"0"}},{"base_weights":[6.9993466E-2,8.803975E-1,5.3379387E-2,-2.3096493E-1,1.1119457E0,-1.2834798E0,6.2330555E-2,-2.2695604E-1,1.4424764E0,7.7683836E-2,-7.092487E-1],"categories":[],"categories_nodes":[],"categories_segments":[],"categories_sizes":[],"default_left":[1,1,1,0,1,0,1,0,0,0,0],"id":15,"left_children":[1,3,5,-1,7,-1,9,-1,-1,-1,-1],"loss_changes":[5.5230217E0,2.3788471E0,4.943732E0,0E0,3.423603E0,0E0,4.8492556E0,0E0,0E0,0E0,0E0],"parents":[2147483647,0,0,1,1,2,2,4,4,6,6],"right_children":[2,4,6,-1,8,-1,10,-1,-1,-1,-1],"split_conditions":[6.10736E0,1.87E0,6.29762E0,-2.3096493E-3,4.1525946E0,-1.2834798E-2,3.14E0,-2.2695602E-3,1.4424764E-2,7.7683834E-4,-7.092487E-3],"split_indices":[3,6,3,0,3,0,6,0,0,0,0],"split_type":[0,0,0,0,0,0,0,0,0,0,0],"sum_hessian":[4.126934E2,7.2462E0,4.0544717E2,1.2498436E0,5.9963565E0,1.7496507E0,4.0369754E2,1.2492595E0,4.747097E0,3.9670306E2,6.994484E0],"tree_param":{"num_deleted":"0","num_feature":"8","num_nodes":"11","size_leaf_vector":"0"}},{"base_weights":[4.70832E-2,1.176214E-1,-1.7311555E-1,-6.8174875E-1,1.345387E-1,-1.2940827E-1,-1.2122295E0,-1.2569399E0,1.13642246E-1,6.538085E-1,1.0932105E-1,-2.025058E-1,3.9261547E-1],"categories":[],"categories_nodes":[],"categories_segments":[],"categories_sizes":[],"default_left":[1,1,1,1,1,1,0,0,0,0,0,0,0],"id":16,"left_children":[1,3,5,7,9,11,-1,-1,-1,-1,-1,-1,-1],"loss_changes":[6.523617E0,4.3880744E0,4.4750233E0,3.2305706E0,4.013483E0,3.8568008E0,0E0,0E0,0E0,0E0,0E0,0E0,0E0],"parents":[2147483647,0,0,1,1,2,2,3,3,4,4,5,5],"right_children":[2,4,6,8,10,12,-1,-1,-1,-1,-1,-1,-1],"split_conditions":[4.55E1,5E-1,3.005E0,3.35E1,2.5E0,2.525E0,-1.2122295E-2,-1.2569399E-2,1.1364224E-3,6.5380847E-3,1.0932105E-3,-2.025058E-3,3.9261547E-3],"split_indices":[2,2,6,1,2,6,0,0,0,0,0,0,0],"split_type":[0,0,0,0,0,0,0,0,0,0,0,0,0],"sum_hessian":[4.17689E2,3.167027E2,1.0098631E2,5.749107E0,3.1095358E2,9.798922E1,2.9970915E0,2.9996297E0,2.7494771E0,1.3247189E1,2.977064E2,8.64903E1,1.1498918E1],"tree_param":{"num_deleted":"0","num_feature":"8","num_nodes":"13","size_leaf_vector":"0"}},{"base_weights":[4.9904335E-2,1.0179059E-1,-1.573054E-1,1.9694781E-1,-5.5251908E-2,-3.8171056E-1,2.768909E-2,-2.8964546E-1,2.4623305E-1,-4.3360054E-1,9.793333E-2,-5.555765E-1,4.053182E-1,1.3778448E-1,-5.989072E-1],"categories":[],"categories_nodes":[],"categories_segments":[],"categories_sizes":[],"default_left":[1,1,1,1,1,1,1,0,0,0,0,0,0,0,0],"id":17,"left_children":[1,3,5,7,9,11,13,-1,-1,-1,-1,-1,-1,-1,-1],"loss_changes":[4.530884E0,5.038655E0,3.5180104E0,5.100836E0,7.4451013E0,5.4585843E0,3.3416197E0,0E0,0E0,0E0,0E0,0E0,0E0,0E0,0E0],"parents":[2147483647,0,0,1,1,2,2,3,3,4,4,5,5,6,6],"right_children":[2,4,6,8,10,12,14,-1,-1,-1,-1,-1,-1,-1,-1],"split_conditions":[4.75E1,2.225E0,1.05E1,8.494141E0,1.75E1,9.819745E0,1.0822374E1,-2.8964547E-3,2.4623305E-3,-4.3360055E-3,9.793333E-4,-5.555765E-3,4.053182E-3,1.3778448E-3,-5.9890714E-3],"split_indices":[2,6,0,3,1,4,4,0,0,0,0,0,0,0,0],"split_type":[0,0,0,0,0,0,0,0,0,0,0,0,0,0,0],"sum_hessian":[4.189358E2,3.3544708E2,8.348871E1,2.0872166E2,1.2672543E2,3.7245354E1,4.6243355E1,1.8747787E1,1.8997388E2,3.5994038E1,9.073139E1,3.0746988E1,6.4983673E0,3.9996006E1,6.247347E0],"tree_param":{"num_deleted":"0","num_feature":"8","num_nodes":"15","size_leaf_vector":"0"}},{"base_weights":[4.749519E-2,9.6263164E-1,2.9716838E-2,-2.2659141E-1,1.2164726E0,-5.456608E-1,5.2328628E-2,3.7485853E-1,1.3855239E0,-7.50005E-1,2.4209924E-1,3.2365483E-1,1.763265E-3],"categories":[],"categories_nodes":[],"categories_segments":[],"categories_sizes":[],"default_left":[1,1,1,0,1,1,1,0,0,0,0,0,0],"id":18,"left_children":[1,3,5,-1,7,9,11,-1,-1,-1,-1,-1,-1],"loss_changes":[6.8238344E0,2.6889648E0,5.417241E0,0E0,4.4030952E-1,2.7167783E0,5.479583E0,0E0,0E0,0E0,0E0,0E0,0E0],"parents":[2147483647,0,0,1,1,2,2,4,4,5,5,6,6],"right_children":[2,4,6,-1,8,10,12,-1,-1,-1,-1,-1,-1],"split_conditions":[6.10736E0,4.2867546E0,3.617275E0,-2.265914E-3,8.5E0,4.85E1,5.139605E0,3.7485852E-3,1.3855238E-2,-7.50005E-3,2.4209924E-3,3.2365483E-3,1.763265E-5],"split_indices":[3,3,4,0,1,1,4,0,0,0,0,0,0],"split_type":[0,0,0,0,0,0,0,0,0,0,0,0,0],"sum_hessian":[4.2018018E2,6.9944835E0,4.131857E2,1.2492421E0,5.7452416E0,1.4749123E1,3.9843658E2,1.4991611E0,4.2460804E0,1.1749293E1,2.9998288E0,6.1741287E1,3.3669528E2],"tree_param":{"num_deleted":"0","num_feature":"8","num_nodes":"13","size_leaf_vector":"0"}},{"base_weights":[3.5737153E-2,9.2591144E-2,-2.8036016E-1,-8.9655735E-2,1.7422011E-1,-6.9351286E-1,-1.559887E-1,-3.9514616E-1,1.225589E-1,2.6343936E-1,-1.2655333E-1,-1.0869317E0,1.1139492E-1,-4.258935E-1,6.1597798E-2],"categories":[],"categories_nodes":[],"categories_segments":[],"categories_sizes":[],"default_left":[1,1,1,1,1,1,1,0,0,0,0,0,0,0,0],"id":19,"left_children":[1,3,5,7,9,11,13,-1,-1,-1,-1,-1,-1,-1,-1],"loss_changes":[7.657964E0,5.38144E0,3.2311497E0,7.3247447E0,6.7272825E0,4.790774E0,3.0354848E0,0E0,0E0,0E0,0E0,0E0,0E0,0E0,0E0],"parents":[2147483647,0,0,1,1,2,2,3,3,4,4,5,5,6,6],"right_children":[2,4,6,8,10,12,14,-1,-1,-1,-1,-1,-1,-1,-1],"split_conditions":[1.9553734E1,1.95E1,1.15E1,8.5E0,4.55E1,2.401596E1,3.05E1,-3.9514615E-3,1.225589E-3,2.6343935E-3,-1.2655333E-3,-1.0869317E-2,1.1139492E-3,-4.258935E-3,6.15978E-4],"split_indices":[3,1,1,0,2,3,2,0,0,0,0,0,0,0,0],"split_type":[0,0,0,0,0,0,0,0,0,0,0,0,0,0,0],"sum_hessian":[4.236752E2,3.5968796E2,6.3987232E1,1.1123766E2,2.484503E2,1.374644E1,5.024079E1,4.524454E1,6.599312E1,1.9170767E2,5.6742634E1,8.998041E0,4.7483983E0,2.1997133E1,2.8243658E1],"tree_param":{"num_deleted":"0","num_feature":"8","num_nodes":"15","size_leaf_vector":"0"}}]},"name":"gbtree"},"learner_model_param":{"base_score":"5E-1","boost_from_average":"1","num_class":"0","num_feature":"8","num_target":"1"},"objective":{"name":"binary:logistic","reg_loss_param":{"scale_pos_weight":"1"}}},"version":[1,7,3]}