{"learner":{"attributes":{"best_iteration":"24","best_ntree_limit":"25","scikit_learn":"{\"use_label_encoder\": null, \"n_estimators\": 25, \"objective\": \"binary:logistic\", \"max_depth\": 3, \"max_leaves\": null, \"max_bin\": null, \"grow_policy\": null, \"learning_rate\": 0.01, \"verbosity\": null, \"booster\": \"gbtree\", \"tree_method\": null, \"gamma\": 0.03, \"min_child_weight\": null, \"max_delta_step\": null, \"subsample\": 0.8, \"sampling_method\": null, \"colsample_bytree\": 1, \"colsample_bylevel\": null, \"colsample_bynode\": null, \"reg_alpha\": null, \"reg_lambda\": null, \"scale_pos_weight\": null, \"base_score\": null, \"missing\": NaN, \"num_parallel_tree\": null, \"random_state\": 1, \"n_jobs\": null, \"monotone_constraints\": null, \"interaction_constraints\": null, \"importance_type\": null, \"gpu_id\": null, \"validate_parameters\": null, \"predictor\": null, \"enable_categorical\": false, \"feature_types\": null, \"max_cat_to_onehot\": null, \"max_cat_threshold\": null, \"eval_metric\": null, \"early_stopping_rounds\": null, \"callbacks\": null, \"classes_\": [0.0, 1.0], \"n_classes_\": 2, \"evals_result_\": {\"validation_0\": {\"error\": [0.40638399237732253, 0.40257265364459266, 0.40257265364459266, 0.393044306812768, 0.3959028108623154, 0.39923773225345405, 0.3982848975702716, 0.4001905669366365, 0.401143401619819, 0.4016198189614102, 0.4006669842782277, 0.3982848975702716, 0.3973320628870891, 0.39637922820390664, 0.3959028108623154, 0.3954263935207242, 0.3973320628870891, 0.39637922820390664, 0.3982848975702716, 0.39685564554549785, 0.39685564554549785, 0.39685564554549785, 0.3978084802286803, 0.39923773225345405, 0.39923773225345405], \"logloss\": [0.6927078512522538, 0.6922381826103614, 0.6917011619125337, 0.6912280037438319, 0.690729311984627, 0.6902884538540561, 0.6898216906475305, 0.689340935172553, 0.6889211878769735, 0.6884418812009367, 0.6880181467834117, 0.6876269362550965, 0.6872176667972654, 0.6868224331967998, 0.6864013692036647, 0.6860179149178791, 0.6856328971957297, 0.6852379314896037, 0.6848537543093721, 0.6845099128047984, 0.6841413104687492, 0.6837770932342053, 0.6834215776814683, 0.6830184803854119, 0.6826725202040652], \"aucpr\": [0.6273691953711771, 0.655533371370734, 0.6669642665480642, 0.6739046671640048, 0.6814514373101039, 0.6781677444507929, 0.6772379921337616, 0.6757941014288277, 0.6743455290697534, 0.6768284725589897, 0.6789181292243824, 0.67910853940989, 0.6782777232529181, 0.6800534522324889, 0.6813732316275225, 0.6803706431364713, 0.6808417958064571, 0.6848914826084402, 0.6851598259290734, 0.6833588284953571, 0.6865252016216781, 0.6873312065242685, 0.6883480083712646, 0.6866657801383859, 0.6878822130943536]}, \"validation_1\": {\"error\": [0.39555555555555555, 0.3888888888888889, 0.3877777777777778, 0.38, 0.38222222222222224, 0.38333333333333336, 0.3844444444444444, 0.38333333333333336, 0.3844444444444444, 0.3811111111111111, 0.3811111111111111, 0.3788888888888889, 0.37666666666666665, 0.37777777777777777, 0.38222222222222224, 0.38222222222222224, 0.3811111111111111, 0.3844444444444444, 0.38333333333333336, 0.3811111111111111, 0.38, 0.38, 0.38, 0.3811111111111111, 0.38333333333333336], \"logloss\": [0.6927812000777986, 0.6923578569624159, 0.691901583539115, 0.6913638898399141, 0.6909458265039656, 0.6905978491571214, 0.6901610251267751, 0.6897522792551253, 0.6894241502549914, 0.6888946265644498, 0.6885042691230774, 0.6880624236663183, 0.6876488616069157, 0.6872455655203925, 0.6868265858623717, 0.6864376960198084, 0.6860783363050885, 0.6857279669576221, 0.685436457461781, 0.6851130484210121, 0.6847919281323751, 0.684499496685134, 0.6841812790102428, 0.6838661723004447, 0.6835609441333347], \"aucpr\": [0.6056919647599492, 0.6174254455430372, 0.622773565684442, 0.635715026448357, 0.6253602850374476, 0.6268084315836665, 0.6305984925554265, 0.6307662621070848, 0.6304290762601098, 0.6361051098542404, 0.6358307281300598, 0.6377971609755789, 0.638196994538386, 0.6389403805385453, 0.642619437114953, 0.6432405612997886, 0.6435637430247344, 0.6406678762169112, 0.641778667982019, 0.6414440668563712, 0.6394522668329453, 0.6386929823862325, 0.6411650479719384, 0.6416690125419069, 0.6420958057595529]}}, \"_estimator_type\": \"classifier\"}"},"feature_names":["total_amount","bull_amount","bear_amount","bull_ratio","bear_ratio"],"feature_types":["float","float","float","float","float"],"gradient_booster":{"model":{"gbtree_model_param":{"num_parallel_tree":"1","num_trees":"25","size_leaf_vector":"0"},"tree_info":[0,0,0,0,0,0,0,0,0,0,0,0,0,0,0,0,0,0,0,0,0,0,0,0,0],"trees":[{"base_weights":[3.202417E-1,2.60989E-1,7.389163E-1,2.8530872E-1,-4.3137255E-1,-5E-1,7.7386934E-1,-5.970149E-2,3.2056293E-1,-1.1111112E0,2.857143E-1,1.011236E0,5.614035E-1],"categories":[],"categories_nodes":[],"categories_segments":[],"categories_sizes":[],"default_left":[1,1,1,1,1,0,1,0,0,0,0,0,0],"id":0,"left_children":[1,3,5,7,9,-1,11,-1,-1,-1,-1,-1,-1],"loss_changes":[1.0071293E1,6.252119E0,2.58461E0,4.3035774E0,6.5322123E0,0E0,1.9412956E0,0E0,0E0,0E0,0E0,0E0,0E0],"parents":[2147483647,0,0,1,1,2,2,3,3,4,4,6,6],"right_children":[2,4,6,8,10,-1,12,-1,-1,-1,-1,-1,-1],"split_conditions":[2.6149998E0,1.372207E1,2.0026999E0,4.10646E0,2.982806E1,-5E-3,2.7849998E0,-5.970149E-4,3.2056293E-3,-1.1111111E-2,2.8571428E-3,1.0112359E-2,5.614035E-3],"split_indices":[3,2,2,1,0,0,3,0,0,0,0,0,0],"split_type":[0,0,0,0,0,0,0,0,0,0,0,0,0],"sum_hessian":[4.1275E2,3.63E2,4.975E1,3.5125E2,1.175E1,1E0,4.875E1,3.25E1,3.1875E2,5.75E0,6E0,2.125E1,2.75E1],"tree_param":{"num_deleted":"0","num_feature":"5","num_nodes":"13","size_leaf_vector":"0"}},{"base_weights":[3.093791E-1,2.0026496E-1,5.3995687E-1,2.3588358E-1,-6.149575E-1,-4.4478905E-1,5.697761E-1,1.8464997E-1,9.0630066E-1,-8.914234E-1,1.1519581E-1,-2.8612383E-4,-8.0027497E-1,1.0748968E0,4.458532E-1],"categories":[],"categories_nodes":[],"categories_segments":[],"categories_sizes":[],"default_left":[1,1,1,1,1,1,1,0,0,0,0,0,0,0,0],"id":1,"left_children":[1,3,5,7,9,11,13,-1,-1,-1,-1,-1,-1,-1,-1],"loss_changes":[1.0433567E1,8.449646E0,4.188221E0,9.269707E0,2.5754995E0,7.1083224E-1,7.6894684E0,0E0,0E0,0E0,0E0,0E0,0E0,0E0,0E0],"parents":[2147483647,0,0,1,1,2,2,3,3,4,4,5,5,6,6],"right_children":[2,4,6,8,10,12,14,-1,-1,-1,-1,-1,-1,-1,-1],"split_conditions":[2.295E0,2.2649999E0,3.8812451E0,2.2150002E0,1.8001884E1,3.5179648E0,3.9871702E0,1.8464997E-3,9.063006E-3,-8.914234E-3,1.1519581E-3,-2.8612383E-6,-8.00275E-3,1.07489675E-2,4.4585317E-3],"split_indices":[3,3,1,3,0,1,2,0,0,0,0,0,0,0,0],"split_type":[0,0,0,0,0,0,0,0,0,0,0,0,0,0,0],"sum_hessian":[4.1799814E2,2.849992E2,1.3299895E2,2.7374924E2,1.1249973E1,3.4999745E0,1.2949898E2,2.5549927E2,1.8249956E1,7.9999814E0,3.2499917E0,1.9999825E0,1.4999919E0,2.399979E1,1.0549919E2],"tree_param":{"num_deleted":"0","num_feature":"5","num_nodes":"15","size_leaf_vector":"0"}},{"base_weights":[3.563187E-1,5.5273974E-1,1.8955521E-1,9.4991785E-1,4.687774E-1,2.3143247E-1,-5.5679214E-1,-7.922663E-2,1.1492813E0,-2.2337815E-1,5.424778E-1,3.0210906E-1,-2.5542663E-2,-8.3640265E-1,2.4647339E-1],"categories":[],"categories_nodes":[],"categories_segments":[],"categories_sizes":[],"default_left":[1,1,1,1,1,1,1,0,0,0,0,0,0,0,0],"id":2,"left_children":[1,3,5,7,9,11,13,-1,-1,-1,-1,-1,-1,-1,-1],"loss_changes":[1.3717976E1,5.999031E0,7.3096466E0,6.8101406E0,8.359459E0,3.9715805E0,3.0136313E0,0E0,0E0,0E0,0E0,0E0,0E0,0E0,0E0],"parents":[2147483647,0,0,1,1,2,2,3,3,4,4,5,5,6,6],"right_children":[2,4,6,8,10,12,14,-1,-1,-1,-1,-1,-1,-1,-1],"split_conditions":[1.875E0,3.85776E0,1.373461E1,3.845155E0,4.27918E0,2.025E0,3.3161568E1,-7.922663E-4,1.1492812E-2,-2.2337814E-3,5.4247775E-3,3.0210905E-3,-2.5542662E-4,-8.364026E-3,2.4647338E-3],"split_indices":[4,2,2,1,2,3,0,0,0,0,0,0,0,0,0],"split_type":[0,0,0,0,0,0,0,0,0,0,0,0,0,0,0],"sum_hessian":[4.209935E2,1.922449E2,2.2874861E2,3.1748266E1,1.6049663E2,2.1724878E2,1.1499829E1,5.2499294E0,2.6498337E1,1.5249585E1,1.4524706E2,1.7024907E2,4.6999718E1,8.4998455E0,2.9999833E0],"tree_param":{"num_deleted":"0","num_feature":"5","num_nodes":"15","size_leaf_vector":"0"}},{"base_weights":[3.6100814E-1,3.7344652E-1,-9.987165E-1,-4.931388E-2,4.0862164E-1,4.071063E-1,-8.030285E-1,1.1195478E0,3.682919E-1],"categories":[],"categories_nodes":[],"categories_segments":[],"categories_sizes":[],"default_left":[1,1,0,1,1,0,0,0,0],"id":3,"left_children":[1,3,-1,5,7,-1,-1,-1,-1],"loss_changes":[7.328083E0,6.09087E0,0E0,1.1421188E1,1.0396385E1,0E0,0E0,0E0,0E0],"parents":[2147483647,0,0,1,1,3,3,4,4],"right_children":[2,4,-1,6,8,-1,-1,-1,-1],"split_conditions":[1.8148853E1,4.014045E0,-9.987164E-3,3.583625E0,8.74298E0,4.071063E-3,-8.030285E-3,1.1195478E-2,3.682919E-3],"split_indices":[2,1,0,1,0,0,0,0,0],"split_type":[0,0,0,0,0,0,0,0,0],"sum_hessian":[4.1023465E2,4.0723474E2,2.99992E0,3.1249796E1,3.7598492E2,1.9749897E1,1.14999E1,1.8747473E1,3.5723746E2],"tree_param":{"num_deleted":"0","num_feature":"5","num_nodes":"9","size_leaf_vector":"0"}},{"base_weights":[3.465692E-1,8.1352614E-2,4.4057152E-1,-4.411891E-1,2.3445639E-1,4.1271177E-1,1.3248761E0,-5.950235E-1,1.5794559E-1,3.3481622E-1,-8.285446E-1,3.1582993E-1,5.744026E-1],"categories":[],"categories_nodes":[],"categories_segments":[],"categories_sizes":[],"default_left":[1,1,1,1,1,1,0,0,0,0,0,0,0],"id":4,"left_children":[1,3,5,7,9,11,-1,-1,-1,-1,-1,-1,-1],"loss_changes":[1.0422039E1,8.983503E0,7.077629E0,2.444182E0,9.505162E0,4.541195E0,0E0,0E0,0E0,0E0,0E0,0E0,0E0],"parents":[2147483647,0,0,1,1,2,2,3,3,4,4,5,5],"right_children":[2,4,6,8,10,12,-1,-1,-1,-1,-1,-1,-1],"split_conditions":[1.855E0,2.2350001E0,2.1350002E0,8.100756E0,1.4105579E1,2.3649998E0,1.324876E-2,-5.950235E-3,1.5794558E-3,3.3481622E-3,-8.285446E-3,3.1582993E-3,5.7440256E-3],"split_indices":[3,4,4,1,2,3,0,0,0,0,0,0,0],"split_type":[0,0,0,0,0,0,0,0,0,0,0,0,0],"sum_hessian":[4.1847342E2,1.0999648E2,3.0847693E2,2.4499226E1,8.549725E1,3.004772E2,7.99973E0,1.9499403E1,4.9998236E0,7.874758E1,6.7496724E0,1.8974133E2,1.1073587E2],"tree_param":{"num_deleted":"0","num_feature":"5","num_nodes":"13","size_leaf_vector":"0"}},{"base_weights":[2.893025E-1,4.4141838E-1,1.5194964E-1,-4.0284783E-1,4.7198334E-1,1.926905E-1,-5.487436E-1,1.1085734E0,-8.825094E-1,9.9559E-1,4.03046E-1,2.6138273E-1,-1.12602256E-1,-1.0198305E0,8.55091E-2],"categories":[],"categories_nodes":[],"categories_segments":[],"categories_sizes":[],"default_left":[1,1,1,1,1,1,1,0,0,0,0,0,0,0,0],"id":5,"left_children":[1,3,5,7,9,11,13,-1,-1,-1,-1,-1,-1,-1,-1],"loss_changes":[8.728241E0,5.3309937E0,6.464222E0,6.4155183E0,6.5551605E0,4.459386E0,3.8217852E0,0E0,0E0,0E0,0E0,0E0,0E0,0E0,0E0],"parents":[2147483647,0,0,1,1,2,2,3,3,4,4,5,5,6,6],"right_children":[2,4,6,8,10,12,14,-1,-1,-1,-1,-1,-1,-1,-1],"split_conditions":[1.875E0,4.017435E0,1.3661195E1,2.7465549E0,3.71167E0,2.045E0,2.9519405E1,1.1085734E-2,-8.8250935E-3,9.9559E-3,4.03046E-3,2.6138271E-3,-1.1260225E-3,-1.0198304E-2,8.5509097E-4],"split_indices":[4,1,2,1,2,3,0,0,0,0,0,0,0,0,0],"split_type":[0,0,0,0,0,0,0,0,0,0,0,0,0,0,0],"sum_hessian":[4.1995837E2,1.9821973E2,2.2173865E2,6.4998775E0,1.9171985E2,2.1023955E2,1.1499091E1,1.2499881E0,5.2498894E0,2.0741083E1,1.7097876E2,1.7174092E2,3.8498634E1,6.2494383E0,5.249653E0],"tree_param":{"num_deleted":"0","num_feature":"5","num_nodes":"15","size_leaf_vector":"0"}},{"base_weights":[3.446915E-1,5.0857985E-1,2.0363735E-1,-2.3805857E-1,5.310287E-1,2.7512056E-1,-8.843125E-2,3.13241E-1,-1.1903309E0,9.330574E-1,4.5277023E-1,-8.227743E-1,2.9996252E-1,4.0670577E-1,-2.6185843E-1],"categories":[],"categories_nodes":[],"categories_segments":[],"categories_sizes":[],"default_left":[1,1,1,1,1,1,1,0,0,0,0,0,0,0,0],"id":6,"left_children":[1,3,5,7,9,11,13,-1,-1,-1,-1,-1,-1,-1,-1],"loss_changes":[9.4483185E0,3.3187485E0,4.6954784E0,3.6539173E0,5.4046364E0,5.155737E0,3.949076E0,0E0,0E0,0E0,0E0,0E0,0E0,0E0,0E0],"parents":[2147483647,0,0,1,1,2,2,3,3,4,4,5,5,6,6],"right_children":[2,4,6,8,10,12,14,-1,-1,-1,-1,-1,-1,-1,-1],"split_conditions":[1.875E0,3.845155E0,2.045E0,3.6198502E0,3.98842E0,1.485E0,5.5541897E0,3.1324099E-3,-1.1903308E-2,9.330574E-3,4.5277025E-3,-8.227742E-3,2.9996252E-3,4.0670577E-3,-2.6185843E-3],"split_indices":[4,1,3,1,2,3,1,0,0,0,0,0,0,0,0],"split_type":[0,0,0,0,0,0,0,0,0,0,0,0,0,0,0],"sum_hessian":[4.1219507E2,1.8945961E2,2.2273544E2,5.2497835E0,1.8420982E2,1.789868E2,4.374865E1,3.7499073E0,1.4998765E0,2.8235567E1,1.5597426E2,3.2496045E0,1.757372E2,1.0999581E1,3.274907E1],"tree_param":{"num_deleted":"0","num_feature":"5","num_nodes":"15","size_leaf_vector":"0"}},{"base_weights":[3.3397222E-1,1.7479023E-1,5.1562214E-1,2.1641593E-1,-5.2390105E-1,9.636559E-1,4.31414E-1,-1.40847E-1,2.9189903E-1,-1.0457637E0,1.5880741E-1,2.845622E-1,1.1200672E0,-7.168776E-2,5.062485E-1],"categories":[],"categories_nodes":[],"categories_segments":[],"categories_sizes":[],"default_left":[1,1,1,1,1,1,1,0,0,0,0,0,0,0,0],"id":7,"left_children":[1,3,5,7,9,11,13,-1,-1,-1,-1,-1,-1,-1,-1],"loss_changes":[1.2088207E1,6.6856847E0,6.986164E0,5.811633E0,4.797179E0,2.8921947E0,6.3222694E0,0E0,0E0,0E0,0E0,0E0,0E0,0E0,0E0],"parents":[2147483647,0,0,1,1,2,2,3,3,4,4,5,5,6,6],"right_children":[2,4,6,8,10,12,14,-1,-1,-1,-1,-1,-1,-1,-1],"split_conditions":[2.1350002E0,1.372207E1,3.785865E0,1.955E0,2.9519405E1,4.008345E0,4.35753E0,-1.40847E-3,2.91899E-3,-1.0457637E-2,1.588074E-3,2.845622E-3,1.1200672E-2,-7.168776E-4,5.0624846E-3],"split_indices":[3,2,2,4,0,1,2,0,0,0,0,0,0,0,0],"split_type":[0,0,0,0,0,0,0,0,0,0,0,0,0,0,0],"sum_hessian":[4.2017126E2,2.2498045E2,1.9519081E2,2.1298196E2,1.1998496E1,2.922957E1,1.6596124E2,3.6999016E1,1.7598294E2,6.498927E0,5.499569E0,5.9997373E0,2.3229834E1,2.1495037E1,1.444662E2],"tree_param":{"num_deleted":"0","num_feature":"5","num_nodes":"15","size_leaf_vector":"0"}},{"base_weights":[2.5967836E-1,9.9901855E-2,4.562426E-1,1.4515045E-1,-6.701319E-1,-2.2380577E-1,4.7912255E-1,2.2586545E-1,-1.7867854E-1,-9.2441994E-1,2.8401884E-1,7.9024863E-1,-6.64054E-1,9.9828744E-1,4.147279E-1],"categories":[],"categories_nodes":[],"categories_segments":[],"categories_sizes":[],"default_left":[1,1,1,1,1,1,1,0,0,0,0,0,0,0,0],"id":8,"left_children":[1,3,5,7,9,11,13,-1,-1,-1,-1,-1,-1,-1,-1],"loss_changes":[1.3031988E1,8.145081E0,3.0079155E0,5.763937E0,3.4160523E0,3.5380538E0,5.6262207E0,0E0,0E0,0E0,0E0,0E0,0E0,0E0,0E0],"parents":[2147483647,0,0,1,1,2,2,3,3,4,4,5,5,6,6],"right_children":[2,4,6,8,10,12,14,-1,-1,-1,-1,-1,-1,-1,-1],"split_conditions":[2.1350002E0,1.373461E1,4.017435E0,2.025E0,3.308484E1,3.0313501E0,3.71167E0,2.2586545E-3,-1.7867854E-3,-9.244199E-3,2.8401883E-3,7.902486E-3,-6.6405395E-3,9.982875E-3,4.147279E-3],"split_indices":[3,2,1,3,0,1,2,0,0,0,0,0,0,0,0],"split_type":[0,0,0,0,0,0,0,0,0,0,0,0,0,0,0],"sum_hessian":[4.1539896E2,2.2997382E2,1.8542516E2,2.1797662E2,1.1997207E1,5.749654E0,1.7967549E2,1.7472787E2,4.3248737E1,9.497274E0,2.499932E0,1.4998766E0,4.2497773E0,1.8226507E1,1.6144899E2],"tree_param":{"num_deleted":"0","num_feature":"5","num_nodes":"15","size_leaf_vector":"0"}},{"base_weights":[2.9248634E-1,5.859087E-1,2.1184891E-1,1.4165162E-1,7.282265E-1,-5.468495E-1,2.6390067E-1,4.8584363E-1,-8.7229615E-1,1.2778232E0,5.2208817E-1,-9.371166E-1,-3.570816E-1,2.9481414E-1,-4.872554E-1],"categories":[],"categories_nodes":[],"categories_segments":[],"categories_sizes":[],"default_left":[1,1,1,1,1,1,1,0,0,0,0,0,0,0,0],"id":9,"left_children":[1,3,5,7,9,11,13,-1,-1,-1,-1,-1,-1,-1,-1],"loss_changes":[9.893234E0,5.631523E0,1.3321527E1,8.537183E0,7.0881844E0,1.2760239E0,7.409996E0,0E0,0E0,0E0,0E0,0E0,0E0,0E0,0E0],"parents":[2147483647,0,0,1,1,2,2,3,3,4,4,5,5,6,6],"right_children":[2,4,6,8,10,12,14,-1,-1,-1,-1,-1,-1,-1,-1],"split_conditions":[4.7306347E0,3.925965E0,4.530205E0,3.6172452E0,8.756966E0,5.063435E0,1.373461E1,4.858436E-3,-8.722961E-3,1.2778232E-2,5.2208817E-3,-9.371166E-3,-3.5708158E-3,2.9481414E-3,-4.872554E-3],"split_indices":[2,1,1,1,0,2,2,0,0,0,0,0,0,0,0],"split_type":[0,0,0,0,0,0,0,0,0,0,0,0,0,0,0],"sum_hessian":[4.2237308E2,8.970171E1,3.3267136E2,2.2248E1,6.745371E1,2.0747864E1,3.119235E2,1.6998554E1,5.2494445E0,1.6980967E1,5.0472748E1,5.4995465E0,1.5248317E1,3.0017737E2,1.1746137E1],"tree_param":{"num_deleted":"0","num_feature":"5","num_nodes":"15","size_leaf_vector":"0"}},{"base_weights":[3.146639E-1,2.1941316E-1,5.6758255E-1,2.940829E-1,-9.5626324E-2,-5.016646E-1,6.005024E-1,8.163759E-2,4.0124896E-1,-1.0331073E0,2.7095899E-2,-9.931025E-3,-7.9272974E-1,1.3028779E0,5.040351E-1],"categories":[],"categories_nodes":[],"categories_segments":[],"categories_sizes":[],"default_left":[1,1,1,1,1,1,1,0,0,0,0,0,0,0,0],"id":10,"left_children":[1,3,5,7,9,11,13,-1,-1,-1,-1,-1,-1,-1,-1],"loss_changes":[1.0116138E1,7.3305283E0,4.372547E0,5.686104E0,6.957804E0,5.645641E-1,6.9770126E0,0E0,0E0,0E0,0E0,0E0,0E0,0E0,0E0],"parents":[2147483647,0,0,1,1,2,2,3,3,4,4,5,5,6,6],"right_children":[2,4,6,8,10,12,14,-1,-1,-1,-1,-1,-1,-1,-1],"split_conditions":[2.3649998E0,9.2431755E0,6.27034E0,5.3055353E0,7.9687147E0,5.4410353E0,5.69964E0,8.163759E-4,4.0124897E-3,-1.0331073E-2,2.70959E-4,-9.931025E-5,-7.927298E-3,1.3028779E-2,5.040351E-3],"split_indices":[3,1,0,1,2,0,1,0,0,0,0,0,0,0,0],"split_type":[0,0,0,0,0,0,0,0,0,0,0,0,0,0,0],"sum_hessian":[4.240885E2,3.0942474E2,1.1466376E2,2.5019157E2,5.9233166E1,2.9995158E0,1.11664246E2,8.448025E1,1.6571133E2,5.9977565E0,5.323541E1,1.4998116E0,1.4997041E0,1.1974241E1,9.969E1],"tree_param":{"num_deleted":"0","num_feature":"5","num_nodes":"15","size_leaf_vector":"0"}},{"base_weights":[3.062602E-1,3.1991762E-1,-8.3729684E-1,-8.877101E-2,3.54394E-1,-1.3105721E0,-1.4289041E-1,2.6637307E-1,-6.4495504E-1,1.1565729E0,3.165342E-1],"categories":[],"categories_nodes":[],"categories_segments":[],"categories_sizes":[],"default_left":[1,1,1,1,1,0,0,0,0,0,0],"id":11,"left_children":[1,3,5,7,9,-1,-1,-1,-1,-1,-1],"loss_changes":[6.8479347E0,5.9079285E0,1.5377157E0,6.738628E0,1.1320957E1,0E0,0E0,0E0,0E0,0E0,0E0],"parents":[2147483647,0,0,1,1,2,2,3,3,4,4],"right_children":[2,4,6,8,10,-1,-1,-1,-1,-1,-1],"split_conditions":[1.8148853E1,4.10646E0,2.1197775E1,3.6075501E0,8.74298E0,-1.3105721E-2,-1.428904E-3,2.6637306E-3,-6.4495504E-3,1.1565729E-2,3.165342E-3],"split_indices":[2,1,2,1,0,0,0,0,0,0,0],"split_type":[0,0,0,0,0,0,0,0,0,0,0],"sum_hessian":[4.203123E2,4.160635E2,4.24877E0,3.2245483E1,3.8381802E2,1.9990101E0,2.2497604E0,1.9997446E1,1.2248039E1,1.5966602E1,3.6785144E2],"tree_param":{"num_deleted":"0","num_feature":"5","num_nodes":"11","size_leaf_vector":"0"}},{"base_weights":[3.0916235E-1,1.5834384E-1,5.2362835E-1,1.0889834E0,1.407638E-1,-5.6333447E-1,5.6558025E-1,-2.4160495E-1,1.9468403E-1,9.73371E-2,-1.3558298E0,6.751623E-1,2.0137256E-1],"categories":[],"categories_nodes":[],"categories_segments":[],"categories_sizes":[],"default_left":[1,1,1,0,1,1,1,0,0,0,0,0,0],"id":12,"left_children":[1,3,5,-1,7,9,11,-1,-1,-1,-1,-1,-1],"loss_changes":[1.3648735E1,3.9480739E0,8.291645E0,0E0,5.143355E0,3.79625E0,6.6028824E0,0E0,0E0,0E0,0E0,0E0,0E0],"parents":[2147483647,0,0,1,1,2,2,4,4,5,5,6,6],"right_children":[2,4,6,-1,8,10,12,-1,-1,-1,-1,-1,-1],"split_conditions":[2.1950002E0,5.929105E0,4.008345E0,1.0889834E-2,4.29388E0,3.6198502E0,7.015015E0,-2.4160496E-3,1.9468402E-3,9.73371E-4,-1.3558298E-2,6.751623E-3,2.0137257E-3],"split_indices":[3,0,1,0,1,1,2,0,0,0,0,0,0],"split_type":[0,0,0,0,0,0,0,0,0,0,0,0,0],"sum_hessian":[4.235312E2,2.4968442E2,1.7384679E2,3.499246E0,2.4618517E2,5.9985175E0,1.6784827E2,2.9995424E1,2.1618974E2,3.7497106E0,2.2488067E0,1.2837059E2,3.947768E1],"tree_param":{"num_deleted":"0","num_feature":"5","num_nodes":"13","size_leaf_vector":"0"}},{"base_weights":[2.9701906E-1,3.98884E-1,-1.7484361E-3,3.7180153E-1,9.837978E-1,6.5026715E-2,-8.425989E-1,4.0549138E-1,-1.5675248E-1,1.3253206E-1,1.1458818E0,-3.1121143E-3,9.7804546E-1,-1.1987263E0,-1.195168E-1],"categories":[],"categories_nodes":[],"categories_segments":[],"categories_sizes":[],"default_left":[1,1,1,1,1,1,1,0,0,0,0,0,0,0,0],"id":13,"left_children":[1,3,5,7,9,11,13,-1,-1,-1,-1,-1,-1,-1,-1],"loss_changes":[1.27752075E1,4.5928307E0,6.103062E0,5.4195366E0,1.6755915E0,6.269261E0,1.9159732E0,0E0,0E0,0E0,0E0,0E0,0E0,0E0,0E0],"parents":[2147483647,0,0,1,1,2,2,3,3,4,4,5,5,6,6],"right_children":[2,4,6,8,10,12,14,-1,-1,-1,-1,-1,-1,-1,-1],"split_conditions":[2.1750002E0,2.1350002E0,1.4105579E1,1.0478245E1,1.1022961E1,8.8946E0,1.1790115E1,4.0549138E-3,-1.5675247E-3,1.3253206E-3,1.1458818E-2,-3.112114E-5,9.780454E-3,-1.1987262E-2,-1.1951679E-3],"split_indices":[4,4,2,2,0,1,1,0,0,0,0,0,0,0,0],"split_type":[0,0,0,0,0,0,0,0,0,0,0,0,0,0,0],"sum_hessian":[4.1874573E2,3.1202542E2,1.0672032E2,2.997807E2,1.2244694E1,9.972356E1,6.996763E0,2.8203662E2,1.7744083E1,2.249258E0,9.995436E0,9.3725395E1,5.998159E0,4.2471733E0,2.74959E0],"tree_param":{"num_deleted":"0","num_feature":"5","num_nodes":"15","size_leaf_vector":"0"}},{"base_weights":[3.0073634E-1,2.9902564E-2,4.0080312E-1,1.0591173E-1,-1.0580168E0,5.093226E-1,2.4846809E-1,-3.1678724E-1,2.2064875E-1,-1.352792E0,-3.8304493E-1,-4.358538E-2,5.5283886E-1,1.9339927E-1,1.0830555E0],"categories":[],"categories_nodes":[],"categories_segments":[],"categories_sizes":[],"default_left":[1,1,1,1,1,1,1,0,0,0,0,0,0,0,0],"id":14,"left_children":[1,3,5,7,9,11,13,-1,-1,-1,-1,-1,-1,-1,-1],"loss_changes":[1.1654057E1,9.804836E0,5.0682907E0,5.4276085E0,1.022932E0,4.41658E0,5.8885775E0,0E0,0E0,0E0,0E0,0E0,0E0,0E0,0E0],"parents":[2147483647,0,0,1,1,2,2,3,3,4,4,5,5,6,6],"right_children":[2,4,6,8,10,12,14,-1,-1,-1,-1,-1,-1,-1,-1],"split_conditions":[1.855E0,1.4105579E1,6.5193853E0,2.2350001E0,1.180126E1,4.008345E0,1.5327645E1,-3.1678723E-3,2.2064873E-3,-1.352792E-2,-3.8304492E-3,-4.3585378E-4,5.5283885E-3,1.9339926E-3,1.0830555E-2],"split_indices":[3,2,2,4,1,1,1,0,0,0,0,0,0,0,0],"split_type":[0,0,0,0,0,0,0,0,0,0,0,0,0,0,0],"sum_hessian":[4.294581E2,1.1621566E2,3.1324243E2,1.0947002E2,6.745645E0,1.8156024E2,1.316822E2,2.2994764E1,8.647526E1,3.9961967E0,2.749448E0,1.3246861E1,1.6831337E2,1.2468669E2,6.995507E0],"tree_param":{"num_deleted":"0","num_feature":"5","num_nodes":"15","size_leaf_vector":"0"}},{"base_weights":[2.8052193E-1,1.3766506E-1,4.4494554E-1,-1.8202713E-1,2.08116E-1,-3.073486E-1,4.688026E-1,-3.7705082E-1,5.6549115E-3,-8.4339267E-1,2.273527E-1,6.473199E-1,-8.755279E-1,1.1355424E0,4.1034526E-1],"categories":[],"categories_nodes":[],"categories_segments":[],"categories_sizes":[],"default_left":[1,1,1,1,1,1,1,0,0,0,0,0,0,0,0],"id":15,"left_children":[1,3,5,7,9,11,13,-1,-1,-1,-1,-1,-1,-1,-1],"loss_changes":[9.649868E0,5.0530496E0,3.5856934E0,1.4934254E0,3.891961E0,4.0915413E0,6.7937202E0,0E0,0E0,0E0,0E0,0E0,0E0,0E0,0E0],"parents":[2147483647,0,0,1,1,2,2,3,3,4,4,5,5,6,6],"right_children":[2,4,6,8,10,12,14,-1,-1,-1,-1,-1,-1,-1,-1],"split_conditions":[2.1350002E0,1.955E0,3.845155E0,1.403434E1,1.485E0,3.35796E0,8.756966E0,-3.770508E-3,5.6549114E-5,-8.433927E-3,2.273527E-3,6.473199E-3,-8.755279E-3,1.1355423E-2,4.1034524E-3],"split_indices":[3,4,1,0,3,1,0,0,0,0,0,0,0,0,0],"split_type":[0,0,0,0,0,0,0,0,0,0,0,0,0,0,0],"sum_hessian":[4.1243185E2,2.2167247E2,1.9075937E2,3.9742996E1,1.8192947E2,5.498241E0,1.8526112E2,1.8995478E1,2.0747519E1,2.498788E0,1.794307E2,1.9994421E0,3.4987988E0,1.3448467E1,1.7181265E2],"tree_param":{"num_deleted":"0","num_feature":"5","num_nodes":"15","size_leaf_vector":"0"}},{"base_weights":[2.952387E-1,3.233436E-1,-5.401866E-1,6.876255E-1,2.7407086E-1,-8.4034E-1,1.1761411E0,3.107371E-1,8.350877E-1,-3.107543E-1,3.1272578E-1,-1.0788866E0,-3.406571E-1],"categories":[],"categories_nodes":[],"categories_segments":[],"categories_sizes":[],"default_left":[1,1,1,1,1,1,0,0,0,0,0,0,0],"id":16,"left_children":[1,3,5,7,9,11,-1,-1,-1,-1,-1,-1,-1],"loss_changes":[9.998005E0,7.0879097E0,8.1960945E0,2.3880138E0,8.207222E0,1.1214733E0,0E0,0E0,0E0,0E0,0E0,0E0,0E0],"parents":[2147483647,0,0,1,1,2,2,3,3,4,4,5,5],"right_children":[2,4,6,8,10,12,-1,-1,-1,-1,-1,-1,-1],"split_conditions":[1.372207E1,3.9526901E0,1.5550501E1,6.915395E0,9.342939E0,2.9519405E1,1.1761411E-2,3.107371E-3,8.350877E-3,-3.1075429E-3,3.1272578E-3,-1.0788866E-2,-3.4065708E-3],"split_indices":[2,2,1,0,0,0,0,0,0,0,0,0,0],"split_type":[0,0,0,0,0,0,0,0,0,0,0,0,0],"sum_hessian":[4.1737836E2,4.0438715E2,1.2991213E1,4.6636925E1,3.5775024E2,1.1491884E1,1.4993292E0,1.3989459E1,3.2647465E1,2.1743614E1,3.3600662E2,6.993887E0,4.497997E0],"tree_param":{"num_deleted":"0","num_feature":"5","num_nodes":"13","size_leaf_vector":"0"}},{"base_weights":[3.0199915E-1,3.8699368E-1,6.782829E-2,3.628695E-1,1.2192261E0,1.3980392E-1,-8.062265E-1,3.470764E-1,1.1854085E0,2.1693857E-2,7.411618E-1,-1.2409389E0,1.9512229E-2],"categories":[],"categories_nodes":[],"categories_segments":[],"categories_sizes":[],"default_left":[1,1,1,1,0,1,1,0,0,0,0,0,0],"id":17,"left_children":[1,3,5,7,-1,9,11,-1,-1,-1,-1,-1,-1],"loss_changes":[8.325012E0,5.7340775E0,7.2185435E0,3.4908943E0,0E0,7.456601E0,3.1619806E0,0E0,0E0,0E0,0E0,0E0,0E0],"parents":[2147483647,0,0,1,1,2,2,3,3,5,5,6,6],"right_children":[2,4,6,8,-1,10,12,-1,-1,-1,-1,-1,-1],"split_conditions":[2.165E0,2.1350002E0,1.3841045E1,1.59659E1,1.2192261E-2,1.0405266E1,1.1790115E1,3.4707638E-3,1.1854084E-2,2.1693857E-4,7.4116183E-3,-1.2409389E-2,1.9512228E-4],"split_indices":[4,4,2,1,0,2,1,0,0,0,0,0,0],"split_type":[0,0,0,0,0,0,0,0,0,0,0,0,0],"sum_hessian":[4.18593E2,3.066418E2,1.1195116E2,2.9939908E2,7.2427487E0,1.04209854E2,7.7412987E0,2.9515393E2,4.2451277E0,8.796844E1,1.6241419E1,4.7420244E0,2.9992747E0],"tree_param":{"num_deleted":"0","num_feature":"5","num_nodes":"13","size_leaf_vector":"0"}},{"base_weights":[2.6560104E-1,1.2958862E-1,4.5370755E-1,1.6795716E-1,-6.001043E-1,3.810905E-1,8.4580487E-1,1.3754761E-1,7.726553E-1,-1.1424431E0,1.7740078E-1,4.8205522E-1,-1.2145051E-2,9.2055984E-2,1.1766732E0],"categories":[],"categories_nodes":[],"categories_segments":[],"categories_sizes":[],"default_left":[1,1,1,1,1,1,1,0,0,0,0,0,0,0,0],"id":18,"left_children":[1,3,5,7,9,11,13,-1,-1,-1,-1,-1,-1,-1,-1],"loss_changes":[1.0707052E1,6.9772186E0,4.694023E0,4.1989093E0,5.4685717E0,5.9799347E0,6.552944E0,0E0,0E0,0E0,0E0,0E0,0E0,0E0,0E0],"parents":[2147483647,0,0,1,1,2,2,3,3,4,4,5,5,6,6],"right_children":[2,4,6,8,10,12,14,-1,-1,-1,-1,-1,-1,-1,-1],"split_conditions":[2.1950002E0,1.373461E1,1.795E0,1.1955105E1,3.0081615E1,1.745E0,4.97472E0,1.3754761E-3,7.726553E-3,-1.1424431E-2,1.7740078E-3,4.820552E-3,-1.214505E-4,9.205598E-4,1.1766732E-2],"split_indices":[3,2,4,2,0,4,2,0,0,0,0,0,0,0,0],"split_type":[0,0,0,0,0,0,0,0,0,0,0,0,0,0,0],"sum_hessian":[4.197903E2,2.4461078E2,1.7517955E2,2.331226E2,1.1488172E1,1.494695E2,2.5710054E1,2.2312917E2,9.993433E0,6.491051E0,4.9971204E0,1.1875327E2,3.0716223E1,8.23292E0,1.7477135E1],"tree_param":{"num_deleted":"0","num_feature":"5","num_nodes":"15","size_leaf_vector":"0"}},{"base_weights":[2.6034874E-1,9.587259E-2,4.4105765E-1,-9.079546E-1,1.12484254E-1,5.1907164E-1,2.1465187E-1,-1.2044034E0,-1.7392756E-1,-1.9402306E-1,1.7130277E-1,-2.1297076E-1,5.52498E-1,1.12100475E-1,9.722402E-1],"categories":[],"categories_nodes":[],"categories_segments":[],"categories_sizes":[],"default_left":[1,1,1,1,1,1,1,0,0,0,0,0,0,0,0],"id":19,"left_children":[1,3,5,7,9,11,13,-1,-1,-1,-1,-1,-1,-1,-1],"loss_changes":[1.2567139E1,3.826938E0,3.4541245E0,6.057682E-1,4.010766E0,3.7741394E0,4.0426965E0,0E0,0E0,0E0,0E0,0E0,0E0,0E0,0E0],"parents":[2147483647,0,0,1,1,2,2,3,3,4,4,5,5,6,6],"right_children":[2,4,6,8,10,12,14,-1,-1,-1,-1,-1,-1,-1,-1],"split_conditions":[2.125E0,1.495E0,6.982585E0,1.3963434E1,1.955E0,4.017435E0,2.5815716E1,-1.2044034E-2,-1.7392755E-3,-1.9402305E-3,1.7130276E-3,-2.1297075E-3,5.52498E-3,1.1210047E-3,9.722402E-3],"split_indices":[3,3,2,0,4,1,0,0,0,0,0,0,0,0,0],"split_type":[0,0,0,0,0,0,0,0,0,0,0,0,0,0,0],"sum_hessian":[4.2324103E2,2.2237349E2,2.0086752E2,2.746516E0,2.1962697E2,1.4842961E2,5.2437923E1,1.499929E0,1.2465872E0,3.499048E1,1.8463649E2,6.2470465E0,1.4218256E2,4.719704E1,5.2408843E0],"tree_param":{"num_deleted":"0","num_feature":"5","num_nodes":"15","size_leaf_vector":"0"}},{"base_weights":[2.624025E-1,3.4730476E-1,3.5117976E-2,3.212164E-1,1.2277427E0,9.734093E-2,-8.7872547E-1,-5.644244E-1,3.4044242E-1,1.3810135E0,1.8824409E-1,-2.6789948E-1,2.671955E-1,-1.2584903E0,-2.3254621E-1],"categories":[],"categories_nodes":[],"categories_segments":[],"categories_sizes":[],"default_left":[1,1,1,1,1,1,1,0,0,0,0,0,0,0,0],"id":20,"left_children":[1,3,5,7,9,11,13,-1,-1,-1,-1,-1,-1,-1,-1],"loss_changes":[8.135164E0,6.6634445E0,6.677919E0,5.296686E0,1.0924568E0,6.861362E0,1.5454884E0,0E0,0E0,0E0,0E0,0E0,0E0,0E0,0E0],"parents":[2147483647,0,0,1,1,2,2,3,3,4,4,5,5,6,6],"right_children":[2,4,6,8,10,12,14,-1,-1,-1,-1,-1,-1,-1,-1],"split_conditions":[2.165E0,2.1350002E0,1.4105579E1,1.895E0,9.648865E0,6.71735E0,1.1790115E1,-5.6442437E-3,3.404424E-3,1.38101345E-2,1.8824409E-3,-2.6789948E-3,2.671955E-3,-1.2584903E-2,-2.325462E-3],"split_indices":[4,4,2,3,1,2,1,0,0,0,0,0,0,0,0],"split_type":[0,0,0,0,0,0,0,0,0,0,0,0,0,0,0],"sum_hessian":[4.2120935E2,3.062729E2,1.14936455E2,2.987844E2,7.488485E0,1.0844593E2,6.4905243E0,5.7458587E0,2.9303854E2,6.239894E0,1.2485905E0,3.424064E1,7.420529E1,3.491156E0,2.9993684E0],"tree_param":{"num_deleted":"0","num_feature":"5","num_nodes":"15","size_leaf_vector":"0"}},{"base_weights":[2.73456E-1,1.7194994E-1,5.502233E-1,1.9674085E-1,-3.966672E-1,6.2180704E-1,-4.4587586E-2,1.680907E-1,8.095385E-1,-8.6964E-1,3.3893728E-1,5.070692E-1,1.0488454E0,-1.2544597E0,2.1680604E-1],"categories":[],"categories_nodes":[],"categories_segments":[],"categories_sizes":[],"default_left":[1,1,1,1,1,1,1,0,0,0,0,0,0,0,0],"id":21,"left_children":[1,3,5,7,9,11,13,-1,-1,-1,-1,-1,-1,-1,-1],"loss_changes":[1.193338E1,4.514327E0,4.9001427E0,5.1700687E0,4.9844255E0,4.4760704E0,4.454548E0,0E0,0E0,0E0,0E0,0E0,0E0,0E0,0E0],"parents":[2147483647,0,0,1,1,2,2,3,3,4,4,5,5,6,6],"right_children":[2,4,6,8,10,12,14,-1,-1,-1,-1,-1,-1,-1,-1],"split_conditions":[2.3649998E0,1.373461E1,2.0318192E1,1.195281E1,2.9519405E1,1.0212615E1,2.0717615E1,1.680907E-3,8.095385E-3,-8.6964E-3,3.3893727E-3,5.0706915E-3,1.0488454E-2,-1.25445975E-2,2.1680603E-3],"split_indices":[3,2,0,2,0,1,0,0,0,0,0,0,0,0,0],"split_type":[0,0,0,0,0,0,0,0,0,0,0,0,0,0,0],"sum_hessian":[4.271404E2,3.1370755E2,1.1343286E2,3.012284E2,1.2479132E1,1.0120745E2,1.2225408E1,2.889915E2,1.2236926E1,7.484561E0,4.994571E0,8.1497795E1,1.9709656E1,1.4970629E0,1.0728345E1],"tree_param":{"num_deleted":"0","num_feature":"5","num_nodes":"15","size_leaf_vector":"0"}},{"base_weights":[2.7419388E-1,3.0114013E-1,-5.254563E-1,6.6771805E-1,2.5418466E-1,-1.0176886E0,2.4701865E-1,2.3189765E-1,8.218957E-1,-4.391051E-1,2.8032675E-1,-1.3001211E0,-1.4102612E-1,-3.6719424E-1,8.343882E-1],"categories":[],"categories_nodes":[],"categories_segments":[],"categories_sizes":[],"default_left":[1,1,1,1,1,1,1,0,0,0,0,0,0,0,0],"id":22,"left_children":[1,3,5,7,9,11,13,-1,-1,-1,-1,-1,-1,-1,-1],"loss_changes":[9.156494E0,6.7949715E0,5.56621E0,2.8552246E0,6.6530647E0,1.9788666E0,2.559346E0,0E0,0E0,0E0,0E0,0E0,0E0,0E0,0E0],"parents":[2147483647,0,0,1,1,2,2,3,3,4,4,5,5,6,6],"right_children":[2,4,6,8,10,12,14,-1,-1,-1,-1,-1,-1,-1,-1],"split_conditions":[1.375333E1,3.9526901E0,1.785E0,6.915395E0,4.1689053E0,3.3161568E1,1.47772255E1,2.3189764E-3,8.218957E-3,-4.391051E-3,2.8032674E-3,-1.300121E-2,-1.4102613E-3,-3.6719423E-3,8.343882E-3],"split_indices":[2,2,3,0,2,0,2,0,0,0,0,0,0,0,0],"split_type":[0,0,0,0,0,0,0,0,0,0,0,0,0,0,0],"sum_hessian":[4.165998E2,4.0362213E2,1.2977652E1,4.432895E1,3.5929318E2,7.7327757E0,5.244876E0,1.2238363E1,3.2090588E1,1.2481677E1,3.468115E2,5.4832225E0,2.2495532E0,2.7470906E0,2.4977853E0],"tree_param":{"num_deleted":"0","num_feature":"5","num_nodes":"15","size_leaf_vector":"0"}},{"base_weights":[2.80412E-1,4.6067315E-1,1.2617102E-1,5.2071166E-1,1.4530359E-1,1.7109703E-1,-6.104263E-1,-2.6903203E-1,5.484848E-1,-9.4420344E-1,3.878122E-1,-2.1889398E-1,2.6055297E-1,-1.267883E0,2.3360553E-1],"categories":[],"categories_nodes":[],"categories_segments":[],"categories_sizes":[],"default_left":[1,1,1,1,1,1,1,0,0,0,0,0,0,0,0],"id":23,"left_children":[1,3,5,7,9,11,13,-1,-1,-1,-1,-1,-1,-1,-1],"loss_changes":[1.1766335E1,3.6302414E0,7.734231E0,3.745449E0,9.00307E0,7.6654606E0,7.772395E0,0E0,0E0,0E0,0E0,0E0,0E0,0E0,0E0],"parents":[2147483647,0,0,1,1,2,2,3,3,4,4,5,5,6,6],"right_children":[2,4,6,8,10,12,14,-1,-1,-1,-1,-1,-1,-1,-1],"split_conditions":[1.875E0,1.8947475E1,1.373461E1,6.915395E0,1.120436E1,1.955E0,2.9519405E1,-2.6903204E-3,5.484848E-3,-9.442034E-3,3.878122E-3,-2.1889396E-3,2.6055297E-3,-1.2678829E-2,2.3360553E-3],"split_indices":[4,0,2,0,1,4,0,0,0,0,0,0,0,0,0],"split_type":[0,0,0,0,0,0,0,0,0,0,0,0,0,0,0],"sum_hessian":[4.242844E2,1.9472401E2,2.2956038E2,1.630351E2,3.1688913E1,2.1708765E2,1.2472729E1,5.24361E0,1.5779149E2,5.2425356E0,2.6446377E1,4.023457E1,1.7685307E2,6.7290087E0,5.74372E0],"tree_param":{"num_deleted":"0","num_feature":"5","num_nodes":"15","size_leaf_vector":"0"}},{"base_weights":[2.6773173E-1,-1.7355648E-1,3.0532348E-1,7.577134E-1,-3.2546228E-1,1.0777628E0,2.6707754E-1,1.0982361E0,-2.1918455E-2,-7.970358E-1,-1.360029E-1,6.244181E-1,1.2530978E0,-1.4090867E0,2.8001553E-1],"categories":[],"categories_nodes":[],"categories_segments":[],"categories_sizes":[],"default_left":[1,1,1,1,1,1,1,0,0,0,0,0,0,0,0],"id":24,"left_children":[1,3,5,7,9,11,13,-1,-1,-1,-1,-1,-1,-1,-1],"loss_changes":[6.995165E0,4.9840565E0,1.1115551E1,1.350667E0,2.5264907E0,6.3884354E-1,8.399302E0,0E0,0E0,0E0,0E0,0E0,0E0,0E0,0E0],"parents":[2147483647,0,0,1,1,2,2,3,3,4,4,5,5,6,6],"right_children":[2,4,6,8,10,12,14,-1,-1,-1,-1,-1,-1,-1,-1],"split_conditions":[4.104875E0,2.697325E0,8.756966E0,5.6716146E0,1.915E0,2.255E0,8.88348E0,1.0982361E-2,-2.1918454E-4,-7.970358E-3,-1.360029E-3,6.2441807E-3,1.2530978E-2,-1.4090867E-2,2.8001552E-3],"split_indices":[1,1,0,0,4,3,0,0,0,0,0,0,0,0,0],"split_type":[0,0,0,0,0,0,0,0,0,0,0,0,0,0,0],"sum_hessian":[4.1748566E2,3.248842E1,3.8499722E2,3.9969254E0,2.8491495E1,1.6880873E1,3.6811636E2,2.4974465E0,1.4994789E0,7.2468476E0,2.1244648E1,5.9800897E0,1.0900783E1,1.9930941E0,3.6612326E2],"tree_param":{"num_deleted":"0","num_feature":"5","num_nodes":"15","size_leaf_vector":"0"}}]},"name":"gbtree"},"learner_model_param":{"base_score":"5E-1","boost_from_average":"1","num_class":"0","num_feature":"5","num_target":"1"},"objective":{"name":"binary:logistic","reg_loss_param":{"scale_pos_weight":"1"}}},"version":[1,7,3]}