{"learner":{"attributes":{"best_iteration":"19","best_ntree_limit":"20","scikit_learn":"{\"use_label_encoder\": null, \"n_estimators\": 20, \"objective\": \"binary:logistic\", \"max_depth\": 3, \"max_leaves\": null, \"max_bin\": null, \"grow_policy\": null, \"learning_rate\": 0.01, \"verbosity\": null, \"booster\": \"gbtree\", \"tree_method\": null, \"gamma\": 0.03, \"min_child_weight\": null, \"max_delta_step\": null, \"subsample\": 0.8, \"sampling_method\": null, \"colsample_bytree\": 1, \"colsample_bylevel\": null, \"colsample_bynode\": null, \"reg_alpha\": null, \"reg_lambda\": null, \"scale_pos_weight\": null, \"base_score\": null, \"missing\": NaN, \"num_parallel_tree\": null, \"random_state\": 1, \"n_jobs\": null, \"monotone_constraints\": null, \"interaction_constraints\": null, \"importance_type\": null, \"gpu_id\": null, \"validate_parameters\": null, \"predictor\": null, \"enable_categorical\": false, \"feature_types\": null, \"max_cat_to_onehot\": null, \"max_cat_threshold\": null, \"eval_metric\": null, \"early_stopping_rounds\": null, \"callbacks\": null, \"classes_\": [0.0, 1.0], \"n_classes_\": 2, \"evals_result_\": {\"validation_0\": {\"error\": [0.45307289185326344, 0.4383039542639352, 0.43020485945688425, 0.4292520247737018, 0.4340161981896141, 0.4230585993330157, 0.4197236779418771, 0.4140066698427823, 0.4173415912339209, 0.40971891376846115, 0.4087660790852787, 0.40924249642686994, 0.4106717484516436, 0.41210100047641735, 0.41257741781800855, 0.407336827060505, 0.40495474035254886, 0.40495474035254886, 0.4006669842782277, 0.401143401619819], \"logloss\": [0.6928914774594391, 0.6926550248397311, 0.6924407618735279, 0.6922517854466559, 0.692115582330503, 0.6919210065598145, 0.6917743609029944, 0.6915942224336272, 0.6914330351460599, 0.6912175401328233, 0.6910693783769157, 0.6909020329555368, 0.6907167519314509, 0.6905907130400416, 0.6904881711855794, 0.6902439432123719, 0.6901072287002934, 0.6899501234363976, 0.6897777603489266, 0.6896011037676604], \"aucpr\": [0.5620695194545021, 0.5825726167857759, 0.5935466467659918, 0.5993295164958692, 0.601993147445025, 0.6065540776624403, 0.6120913256138867, 0.6160985328370555, 0.6154482504562808, 0.6216324607562215, 0.623950581967729, 0.6246346881711717, 0.6300807720537374, 0.6297362816109635, 0.6319964043592762, 0.6355867138629799, 0.6368027154728092, 0.6389349817986347, 0.6418521400124293, 0.6419697313459196]}, \"validation_1\": {\"error\": [0.47, 0.5033333333333333, 0.4688888888888889, 0.47333333333333333, 0.4777777777777778, 0.49, 0.4822222222222222, 0.4822222222222222, 0.4766666666666667, 0.48, 0.4777777777777778, 0.4766666666666667, 0.4777777777777778, 0.48, 0.4777777777777778, 0.48, 0.4777777777777778, 0.47888888888888886, 0.47444444444444445, 0.47444444444444445], \"logloss\": [0.6930571270651288, 0.6930177467399173, 0.6929390095339881, 0.6929332576195399, 0.6929673823383119, 0.6929255637857649, 0.6929263033469518, 0.6929388682047526, 0.6929752012756136, 0.6928939406739341, 0.6927886646323734, 0.6928233690394295, 0.6927509221103456, 0.6928133785062366, 0.6927761480543349, 0.6927630912595325, 0.6927397302124235, 0.6926903111404843, 0.6927659771839778, 0.6928079160716799], \"aucpr\": [0.5102746843296588, 0.4989831249877515, 0.513563241805352, 0.5035374923176931, 0.49817291923554063, 0.5045074718762567, 0.5018607982236473, 0.5051706419875481, 0.49522892993796847, 0.5008650703343963, 0.5089872266308872, 0.5029058581520299, 0.5047587288240576, 0.49982685826690854, 0.5020883513733643, 0.5012200313625427, 0.5030662049591327, 0.5026577307956063, 0.4982268067856683, 0.49466311691404]}}, \"_estimator_type\": \"classifier\"}"},"feature_names":["hour","minute","second","total_amount","bull_amount","bear_amount","bull_ratio","bear_ratio"],"feature_types":["int","int","int","float","float","float","float","float"],"gradient_booster":{"model":{"gbtree_model_param":{"num_parallel_tree":"1","num_trees":"20","size_leaf_vector":"0"},"tree_info":[0,0,0,0,0,0,0,0,0,0,0,0,0,0,0,0,0,0,0,0],"trees":[{"base_weights":[-1.0876133E-2,-8.455034E-2,2.5698325E-1,-2.886076E-1,4.3956046E-3,6.56E-1,4.2194095E-2,-3.3766234E-1,1.1428572E0,1.3043479E0,-2.9180696E-2,1.2E0,2.1621622E-1,-9.803922E-2,8.108108E-1],"categories":[],"categories_nodes":[],"categories_segments":[],"categories_sizes":[],"default_left":[1,1,1,1,1,1,1,0,0,0,0,0,0,0,0],"id":0,"left_children":[1,3,5,7,9,11,13,-1,-1,-1,-1,-1,-1,-1,-1],"loss_changes":[8.186807E0,5.9045773E0,7.6428704E0,7.320138E0,9.967888E0,7.2168636E0,6.4657917E0,0E0,0E0,0E0,0E0,0E0,0E0,0E0,0E0],"parents":[2147483647,0,0,1,1,2,2,3,3,4,4,5,5,6,6],"right_children":[2,4,6,8,10,12,14,-1,-1,-1,-1,-1,-1,-1,-1],"split_conditions":[4.75E1,5.72753E0,7.5E0,2.87E0,3.566475E0,1.85E1,1.015843E1,-3.3766234E-3,1.1428571E-2,1.3043478E-2,-2.9180697E-4,1.2E-2,2.1621622E-3,-9.803921E-4,8.108108E-3],"split_indices":[2,4,0,6,5,1,5,0,0,0,0,0,0,0,0],"split_type":[0,0,0,0,0,0,0,0,0,0,0,0,0,0,0],"sum_hessian":[4.1275E2,3.2425E2,8.85E1,9.775E1,2.265E2,3.025E1,5.825E1,9.525E1,2.5E0,4.75E0,2.2175E2,1.275E1,1.75E1,5E1,8.25E0],"tree_param":{"num_deleted":"0","num_feature":"8","num_nodes":"15","size_leaf_vector":"0"}},{"base_weights":[-6.1811592E-2,-1.2398604E-1,2.6962426E-1,-6.2463652E-2,-6.485626E-1,1.1466012E-1,7.9403037E-1,-2.568506E-1,3.0401934E-2,7.3048815E-2,-7.8367627E-1,-4.558553E-2,8.0026263E-1,-4.0355632E-1,1.0958208E0],"categories":[],"categories_nodes":[],"categories_segments":[],"categories_sizes":[],"default_left":[1,1,1,1,1,1,1,0,0,0,0,0,0,0,0],"id":1,"left_children":[1,3,5,7,9,11,13,-1,-1,-1,-1,-1,-1,-1,-1],"loss_changes":[8.667673E0,1.1368034E1,5.313006E0,5.739258E0,3.6647282E0,5.8043833E0,5.8634596E0,0E0,0E0,0E0,0E0,0E0,0E0,0E0,0E0],"parents":[2147483647,0,0,1,1,2,2,3,3,4,4,5,5,6,6],"right_children":[2,4,6,8,10,12,14,-1,-1,-1,-1,-1,-1,-1,-1],"split_conditions":[9.744844E0,8.77594E0,4.75E1,2.05E1,4.5E0,2.125E0,4.5E0,-2.568506E-3,3.0401934E-4,7.3048816E-4,-7.836763E-3,-4.558553E-4,8.002626E-3,-4.035563E-3,1.0958208E-2],"split_indices":[5,5,2,2,0,6,0,0,0,0,0,0,0,0,0],"split_type":[0,0,0,0,0,0,0,0,0,0,0,0,0,0,0],"sum_hessian":[4.1799887E2,3.5249905E2,6.549981E1,3.1649908E2,3.599997E1,5.1499996E1,1.3999812E1,1.017498E2,2.1474928E2,5.749981E0,3.0249989E1,4.2499996E1,9E0,2.7499707E0,1.1249842E1],"tree_param":{"num_deleted":"0","num_feature":"8","num_nodes":"15","size_leaf_vector":"0"}},{"base_weights":[-6.789986E-2,-1.3747181E-1,3.0114707E-1,-6.868846E-2,-7.759701E-1,1.992145E-1,7.779777E-1,-9.2561215E-2,8.233857E-1,1.5359104E-1,-8.455868E-1,6.1046924E-2,4.7051802E-1,1.0920026E0,1.0183625E-1],"categories":[],"categories_nodes":[],"categories_segments":[],"categories_sizes":[],"default_left":[1,1,1,1,1,1,1,0,0,0,0,0,0,0,0],"id":2,"left_children":[1,3,5,7,9,11,13,-1,-1,-1,-1,-1,-1,-1,-1],"loss_changes":[1.0876308E1,1.5570469E1,3.1136198E0,6.9389105E0,2.3624382E0,2.0985372E0,2.3304858E0,0E0,0E0,0E0,0E0,0E0,0E0,0E0,0E0],"parents":[2147483647,0,0,1,1,2,2,3,3,4,4,5,5,6,6],"right_children":[2,4,6,8,10,12,14,-1,-1,-1,-1,-1,-1,-1,-1],"split_conditions":[9.746155E0,8.77594E0,1.95E1,1.2765665E1,1.5E0,4.45E1,4.05E1,-9.256121E-4,8.233857E-3,1.5359103E-3,-8.455868E-3,6.1046926E-4,4.70518E-3,1.0920026E-2,1.0183625E-3],"split_indices":[5,5,0,4,0,1,1,0,0,0,0,0,0,0,0],"split_type":[0,0,0,0,0,0,0,0,0,0,0,0,0,0,0],"sum_hessian":[4.2099713E2,3.5474823E2,6.624889E1,3.2124875E2,3.3499508E1,5.5749134E1,1.0499762E1,3.1374875E2,7.499978E0,2.249999E0,3.1249508E1,3.7749397E1,1.7999737E1,6.7498374E0,3.7499242E0],"tree_param":{"num_deleted":"0","num_feature":"8","num_nodes":"15","size_leaf_vector":"0"}},{"base_weights":[-6.773945E-2,-2.4099033E-1,4.383218E-2,-3.1482986E-1,1.7896397E-1,1.2366838E0,1.8274672E-2,-2.6581544E-1,-1.1587726E0,5.363254E-1,-4.0177336E-1,1.4970989E0,2.2409137E-1,-2.754332E-2,6.0209215E-1],"categories":[],"categories_nodes":[],"categories_segments":[],"categories_sizes":[],"default_left":[1,1,1,1,1,1,1,0,0,0,0,0,0,0,0],"id":3,"left_children":[1,3,5,7,9,11,13,-1,-1,-1,-1,-1,-1,-1,-1],"loss_changes":[7.9598746E0,5.0565214E0,7.6293635E0,5.3796444E0,5.3518877E0,1.0488911E0,6.616897E0,0E0,0E0,0E0,0E0,0E0,0E0,0E0,0E0],"parents":[2147483647,0,0,1,1,2,2,3,3,4,4,5,5,6,6],"right_children":[2,4,6,8,10,12,14,-1,-1,-1,-1,-1,-1,-1,-1],"split_conditions":[2.35E1,9.719585E0,1.565E0,9.18058E0,1.18107395E1,3.05E1,1.281959E1,-2.6581543E-3,-1.1587726E-2,5.363254E-3,-4.0177335E-3,1.4970989E-2,2.2409137E-3,-2.7543318E-4,6.0209213E-3],"split_indices":[2,5,6,5,5,1,4,0,0,0,0,0,0,0,0],"split_type":[0,0,0,0,0,0,0,0,0,0,0,0,0,0,0],"sum_hessian":[4.1024472E2,1.6024806E2,2.4999667E2,1.3649823E2,2.3749819E1,4.2499394E0,2.4574673E2,1.3024864E2,6.249596E0,1.4749853E1,8.999967E0,2.9999433E0,1.2499962E0,2.2874747E2,1.6999277E1],"tree_param":{"num_deleted":"0","num_feature":"8","num_nodes":"15","size_leaf_vector":"0"}},{"base_weights":[-2.392294E-2,-6.1175877E-1,4.722509E-3,5.4605216E-1,-7.566727E-1,-1.4115526E-1,9.7210556E-2,-9.4353396E-1,3.2008574E-3,-2.6860905E-1,5.381377E-2,4.6898194E-2,5.8887523E-1],"categories":[],"categories_nodes":[],"categories_segments":[],"categories_sizes":[],"default_left":[1,1,1,0,1,1,1,0,0,0,0,0,0],"id":4,"left_children":[1,3,5,-1,7,9,11,-1,-1,-1,-1,-1,-1],"loss_changes":[7.066635E0,3.6849132E0,5.4238853E0,0E0,2.5233316E0,3.8908908E0,6.0575323E0,0E0,0E0,0E0,0E0,0E0,0E0],"parents":[2147483647,0,0,1,1,2,2,4,4,5,5,6,6],"right_children":[2,4,6,-1,8,10,12,-1,-1,-1,-1,-1,-1],"split_conditions":[6.827525E0,4.1525946E0,2.35E1,5.4605217E-3,3.48825E0,3.55E1,2.7150002E0,-9.435339E-3,3.2008575E-5,-2.6860903E-3,5.381377E-4,4.6898192E-4,5.888752E-3],"split_indices":[3,3,2,0,5,1,6,0,0,0,0,0,0],"split_type":[0,0,0,0,0,0,0,0,0,0,0,0,0],"sum_hessian":[4.1849173E2,1.8499784E1,3.9999194E2,1.7499759E0,1.6749807E1,1.5499625E2,2.4499571E2,1.3249829E1,3.4999788E0,9.349781E1,6.1498436E1,2.2324617E2,2.1749538E1],"tree_param":{"num_deleted":"0","num_feature":"8","num_nodes":"13","size_leaf_vector":"0"}},{"base_weights":[-5.907539E-2,-2.7543122E-1,3.1665985E-2,-2.1072775E-2,-4.8475918E-1,1.0887865E0,3.3795096E-3,-6.6204786E-1,1.082174E-1,-2.615886E-1,-9.269114E-1,1.3526063E0,-6.278312E-3,-8.389787E-2,3.2510054E-1],"categories":[],"categories_nodes":[],"categories_segments":[],"categories_sizes":[],"default_left":[1,1,1,1,1,1,1,0,0,0,0,0,0,0,0],"id":5,"left_children":[1,3,5,7,9,11,13,-1,-1,-1,-1,-1,-1,-1,-1],"loss_changes":[8.273766E0,6.6185713E0,8.89199E0,4.8159695E0,6.4919777E0,2.2473888E0,8.191018E0,0E0,0E0,0E0,0E0,0E0,0E0,0E0,0E0],"parents":[2147483647,0,0,1,1,2,2,3,3,4,4,5,5,6,6],"right_children":[2,4,6,8,10,12,14,-1,-1,-1,-1,-1,-1,-1,-1],"split_conditions":[5.72641E0,1.905E0,3.683345E0,8.5E0,1.955E0,4.05E1,4.75E1,-6.6204784E-3,1.082174E-3,-2.615886E-3,-9.269114E-3,1.35260625E-2,-6.278312E-5,-8.389786E-4,3.2510054E-3],"split_indices":[4,6,5,1,7,1,2,0,0,0,0,0,0,0,0],"split_type":[0,0,0,0,0,0,0,0,0,0,0,0,0,0,0],"sum_hessian":[4.199895E2,1.234975E2,2.96492E2,5.624897E1,6.724853E1,6.749738E0,2.8974228E2,8.74982E0,4.7499153E1,4.5748962E1,2.1499567E1,5.2497907E0,1.4999478E0,2.2849478E2,6.124748E1],"tree_param":{"num_deleted":"0","num_feature":"8","num_nodes":"15","size_leaf_vector":"0"}},{"base_weights":[-3.9253376E-2,-6.547468E-1,-1.3622708E-2,7.9920614E-1,-8.534307E-1,-4.191951E-2,4.0550765E-1,-3.6283734E-1,-1.2373382E0,-6.1784047E-3,-5.9269565E-1,9.301792E-1,1.3140246E-1],"categories":[],"categories_nodes":[],"categories_segments":[],"categories_sizes":[],"default_left":[1,1,1,0,1,1,1,0,0,0,0,0,0],"id":6,"left_children":[1,3,5,-1,7,9,11,-1,-1,-1,-1,-1,-1],"loss_changes":[6.510104E0,5.448255E0,4.734191E0,0E0,2.376008E0,7.3486185E0,3.5088153E0,0E0,0E0,0E0,0E0,0E0,0E0],"parents":[2147483647,0,0,1,1,2,2,4,4,5,5,6,6],"right_children":[2,4,6,-1,8,10,12,-1,-1,-1,-1,-1,-1],"split_conditions":[6.827525E0,1.6876E0,1.2807606E1,7.992061E-3,7.5E0,1.120889E1,1.360281E1,-3.6283734E-3,-1.2373381E-2,-6.178405E-5,-5.9269564E-3,9.301792E-3,1.3140246E-3],"split_indices":[3,5,4,0,0,4,4,0,0,0,0,0,0],"split_type":[0,0,0,0,0,0,0,0,0,0,0,0,0],"sum_hessian":[4.12237E2,1.5499019E1,3.9673798E2,1.4999567E0,1.3999062E1,3.7249E2,2.4247982E1,6.999524E0,6.999538E0,3.5074084E2,2.1749147E1,7.4994974E0,1.6748486E1],"tree_param":{"num_deleted":"0","num_feature":"8","num_nodes":"13","size_leaf_vector":"0"}},{"base_weights":[-7.336071E-2,-2.4587797E-1,2.04907E-2,-3.236244E-1,2.4156274E-1,1.187887E0,-1.2223592E-3,-4.316482E-1,7.951719E-2,8.016177E-1,-2.4529031E-1,1.4164726E0,3.9267775E-1,-6.755693E-1,3.0735906E-2],"categories":[],"categories_nodes":[],"categories_segments":[],"categories_sizes":[],"default_left":[1,1,1,1,1,1,1,0,0,0,0,0,0,0,0],"id":7,"left_children":[1,3,5,7,9,11,13,-1,-1,-1,-1,-1,-1,-1,-1],"loss_changes":[6.8252373E0,5.7055874E0,6.9401717E0,5.6300945E0,5.9223456E0,3.5256338E-1,5.8339553E0,0E0,0E0,0E0,0E0,0E0,0E0,0E0,0E0],"parents":[2147483647,0,0,1,1,2,2,3,3,4,4,5,5,6,6],"right_children":[2,4,6,8,10,12,14,-1,-1,-1,-1,-1,-1,-1,-1],"split_conditions":[2.15E1,1.938092E1,1.555E0,4.55E1,1.1307955E1,1.5E1,6.827525E0,-4.3164818E-3,7.951719E-4,8.0161765E-3,-2.452903E-3,1.4164725E-2,3.9267773E-3,-6.755693E-3,3.0735906E-4],"split_indices":[2,3,6,1,4,0,3,0,0,0,0,0,0,0,0],"split_type":[0,0,0,0,0,0,0,0,0,0,0,0,0,0,0],"sum_hessian":[4.202343E2,1.4749316E2,2.7274115E2,1.2749403E2,1.9999128E1,3.9995239E0,2.6874164E2,1.0049515E2,2.6998888E1,8.999713E0,1.0999414E1,2.4997146E0,1.4998094E0,1.1248544E1,2.5749307E2],"tree_param":{"num_deleted":"0","num_feature":"8","num_nodes":"15","size_leaf_vector":"0"}},{"base_weights":[-7.491905E-2,-1.0801267E-1,4.4218025E-1,-1.2715511E-1,6.5607023E-1,-4.4694114E-2,8.062556E-1,-1.9090284E-1,3.0561363E-2,1.1330103E0,-4.0921637E-1,-3.8062775E-1,8.558812E-1,-1.1731418E-1,1.1393828E0],"categories":[],"categories_nodes":[],"categories_segments":[],"categories_sizes":[],"default_left":[1,1,1,1,1,1,1,0,0,0,0,0,0,0,0],"id":8,"left_children":[1,3,5,7,9,11,13,-1,-1,-1,-1,-1,-1,-1,-1],"loss_changes":[7.1748495E0,5.8203793E0,4.5113297E0,3.8614073E0,5.4167576E0,3.8803575E0,4.5941534E0,0E0,0E0,0E0,0E0,0E0,0E0,0E0,0E0],"parents":[2147483647,0,0,1,1,2,2,3,3,4,4,5,5,6,6],"right_children":[2,4,6,8,10,12,14,-1,-1,-1,-1,-1,-1,-1,-1],"split_conditions":[1.2807606E1,2.7649999E0,2.95E1,4.25E1,1.248444E1,1.588371E1,4.5E0,-1.9090284E-3,3.0561362E-4,1.1330103E-2,-4.092164E-3,-3.8062774E-3,8.558812E-3,-1.1731418E-3,1.1393828E-2],"split_indices":[4,7,2,2,5,4,0,0,0,0,0,0,0,0,0],"split_type":[0,0,0,0,0,0,0,0,0,0,0,0,0,0,0],"sum_hessian":[4.1547983E2,3.912326E2,2.424721E1,3.824839E2,8.748722E0,1.07493925E1,1.3497817E1,2.7223734E2,1.1024655E2,5.99923E0,2.7494917E0,8.249504E0,2.4998887E0,3.7497532E0,9.748064E0],"tree_param":{"num_deleted":"0","num_feature":"8","num_nodes":"15","size_leaf_vector":"0"}},{"base_weights":[-6.581843E-2,-1.1830794E-1,1.8994898E-1,-1.539114E-1,4.4310078E-1,8.4021294E-1,9.045777E-2,-1.07601136E-1,-7.4325585E-1,-7.0751555E-2,1.1852988E0,1.223934E0,-5.466762E-1,-7.691687E-1,1.723557E-1],"categories":[],"categories_nodes":[],"categories_segments":[],"categories_sizes":[],"default_left":[1,1,1,1,1,1,1,0,0,0,0,0,0,0,0],"id":9,"left_children":[1,3,5,7,9,11,13,-1,-1,-1,-1,-1,-1,-1,-1],"loss_changes":[5.7076607E0,7.1036487E0,4.613929E0,8.973927E0,8.187669E0,5.7242403E0,4.63781E0,0E0,0E0,0E0,0E0,0E0,0E0,0E0,0E0],"parents":[2147483647,0,0,1,1,2,2,3,3,4,4,5,5,6,6],"right_children":[2,4,6,8,10,12,14,-1,-1,-1,-1,-1,-1,-1,-1],"split_conditions":[1.022126E1,2.755E0,4.5E0,2.5549998E0,3.15E1,1.1049665E1,3.5E0,-1.0760113E-3,-7.4325586E-3,-7.075155E-4,1.1852988E-2,1.2239341E-2,-5.466762E-3,-7.6916865E-3,1.7235569E-3],"split_indices":[4,6,1,6,2,5,2,0,0,0,0,0,0,0,0],"split_type":[0,0,0,0,0,0,0,0,0,0,0,0,0,0,0],"sum_hessian":[4.224744E2,3.5098206E2,7.149236E1,3.3073343E2,2.024863E1,8.4989605E0,6.29934E1,3.0773444E2,2.2998974E1,1.2499451E1,7.7491794E0,6.7491255E0,1.749835E0,4.749488E0,5.8243916E1],"tree_param":{"num_deleted":"0","num_feature":"8","num_nodes":"15","size_leaf_vector":"0"}},{"base_weights":[-4.2652115E-2,-6.4086527E-1,-1.5026797E-2,3.3380422E-1,-7.7720135E-1,4.5166618E-1,-3.7438817E-2,-9.707512E-1,1.5257807E-1,8.262106E-3,1.3373038E0,1.2014955E0,-4.9347125E-2],"categories":[],"categories_nodes":[],"categories_segments":[],"categories_sizes":[],"default_left":[1,1,1,0,1,1,1,0,0,0,0,0,0],"id":10,"left_children":[1,3,5,-1,7,9,11,-1,-1,-1,-1,-1,-1],"loss_changes":[7.017486E0,2.7504196E0,4.2789025E0,0E0,3.1616735E0,7.351222E0,5.809162E0,0E0,0E0,0E0,0E0,0E0,0E0],"parents":[2147483647,0,0,1,1,2,2,4,4,5,5,6,6],"right_children":[2,4,6,-1,8,10,12,-1,-1,-1,-1,-1,-1],"split_conditions":[6.9603148E0,4.1525946E0,3.5630999E0,3.3380422E-3,2.2649999E0,5.4259253E0,7.35137E0,-9.707512E-3,1.5257807E-3,8.262106E-5,1.3373037E-2,1.2014955E-2,-4.934712E-4],"split_indices":[3,3,5,0,7,4,3,0,0,0,0,0,0],"split_type":[0,0,0,0,0,0,0,0,0,0,0,0,0],"sum_hessian":[4.242202E2,1.774576E1,4.0647446E2,1.999917E0,1.5745842E1,1.774805E1,3.887264E2,1.2996357E1,2.7494855E0,1.24994135E1,5.2486377E0,2.7497356E0,3.8597668E2],"tree_param":{"num_deleted":"0","num_feature":"8","num_nodes":"13","size_leaf_vector":"0"}},{"base_weights":[-8.627743E-2,-1.2049793E-1,4.7322032E-1,-1.8003146E-1,1.04183644E-1,1.1828028E0,2.7705848E-1,-2.6363575E-1,-3.0819435E-2,6.405354E-1,-3.0445175E-3,2.113472E-1,1.4502465E0,-3.9292648E-1,6.162377E-1],"categories":[],"categories_nodes":[],"categories_segments":[],"categories_sizes":[],"default_left":[1,1,1,1,1,1,1,0,0,0,0,0,0,0,0],"id":11,"left_children":[1,3,5,7,9,11,13,-1,-1,-1,-1,-1,-1,-1,-1],"loss_changes":[8.126563E0,5.342068E0,3.0818748E0,3.9211388E0,4.832688E0,9.923334E-1,4.899781E0,0E0,0E0,0E0,0E0,0E0,0E0,0E0,0E0],"parents":[2147483647,0,0,1,1,2,2,3,3,4,4,5,5,6,6],"right_children":[2,4,6,8,10,12,14,-1,-1,-1,-1,-1,-1,-1,-1],"split_conditions":[1.2807606E1,4.75E1,2.2121704E1,2.2350001E0,4.95E1,2.008863E1,2.4E1,-2.6363574E-3,-3.0819434E-4,6.405354E-3,-3.0445173E-5,2.113472E-3,1.4502464E-2,-3.929265E-3,6.162377E-3],"split_indices":[4,2,3,6,2,3,2,0,0,0,0,0,0,0,0],"split_type":[0,0,0,0,0,0,0,0,0,0,0,0,0,0,0],"sum_hessian":[4.2046762E2,3.9697226E2,2.3495337E1,3.13977E2,8.2995285E1,3.9991949E0,1.9496141E1,2.0073645E2,1.1324055E2,1.2999355E1,6.9995926E1,1.2497792E0,2.7494154E0,6.4993773E0,1.2996764E1],"tree_param":{"num_deleted":"0","num_feature":"8","num_nodes":"15","size_leaf_vector":"0"}},{"base_weights":[-3.1793784E-2,-9.283244E-2,2.0537978E-1,-1.1132356E-1,6.608499E-1,5.794868E-1,4.2601614E-3,-3.5930768E-1,-4.650075E-2,-2.4472558E-1,1.2249632E0,1.1383932E0,1.5543231E-1,3.768958E-1,-2.313536E-1],"categories":[],"categories_nodes":[],"categories_segments":[],"categories_sizes":[],"default_left":[1,1,1,1,1,1,1,0,0,0,0,0,0,0,0],"id":12,"left_children":[1,3,5,7,9,11,13,-1,-1,-1,-1,-1,-1,-1,-1],"loss_changes":[6.167485E0,4.7906046E0,6.5616198E0,5.3076406E0,4.513968E0,7.0506706E0,5.1572123E0,0E0,0E0,0E0,0E0,0E0,0E0,0E0,0E0],"parents":[2147483647,0,0,1,1,2,2,3,3,4,4,5,5,6,6],"right_children":[2,4,6,8,10,12,14,-1,-1,-1,-1,-1,-1,-1,-1],"split_conditions":[4.75E1,2.7649999E0,1.85E1,5.164275E0,1.45E1,7.5E0,6.3223352E0,-3.5930767E-3,-4.650075E-4,-2.447256E-3,1.2249632E-2,1.1383931E-2,1.5543231E-3,3.7689577E-3,-2.313536E-3],"split_indices":[2,7,1,4,2,0,4,0,0,0,0,0,0,0,0],"split_type":[0,0,0,0,0,0,0,0,0,0,0,0,0,0,0],"sum_hessian":[4.2370975E2,3.3746805E2,8.6241714E1,3.3021863E2,7.2494116E0,2.949539E1,5.6746323E1,6.74896E1,2.6272903E2,2.9998713E0,4.2495403E0,1.1997745E1,1.7497644E1,2.1749191E1,3.499713E1],"tree_param":{"num_deleted":"0","num_feature":"8","num_nodes":"15","size_leaf_vector":"0"}},{"base_weights":[-2.3574838E-2,-5.521767E-2,4.5327586E-1,-5.423204E-1,-3.0514788E-2,-7.8468376E-1,5.600268E-1,5.453034E-1,-6.843329E-1,8.027778E-1,-4.7311403E-2,6.708092E-1,-3.0418438E-1],"categories":[],"categories_nodes":[],"categories_segments":[],"categories_sizes":[],"default_left":[1,1,1,1,1,0,1,0,0,0,0,0,0],"id":13,"left_children":[1,3,5,7,9,-1,11,-1,-1,-1,-1,-1,-1],"loss_changes":[6.3616986E0,4.732979E0,3.9073915E0,3.306553E0,5.3107686E0,0E0,2.572845E0,0E0,0E0,0E0,0E0,0E0,0E0],"parents":[2147483647,0,0,1,1,2,2,3,3,4,4,6,6],"right_children":[2,4,6,8,10,-1,12,-1,-1,-1,-1,-1,-1],"split_conditions":[1.283902E1,6.827525E0,3.5E0,4.1525946E0,7.413645E0,-7.846838E-3,3.3723618E1,5.453034E-3,-6.843329E-3,8.027778E-3,-4.7311402E-4,6.708092E-3,-3.0418437E-3],"split_indices":[4,3,2,3,3,0,3,0,0,0,0,0,0],"split_type":[0,0,0,0,0,0,0,0,0,0,0,0,0],"sum_hessian":[4.1895557E2,3.9371375E2,2.5241829E1,1.7991688E1,3.7572205E2,1.4996958E0,2.3742132E1,1.749911E0,1.6241777E1,6.499174E0,3.6922287E2,2.1242826E1,2.499306E0],"tree_param":{"num_deleted":"0","num_feature":"8","num_nodes":"13","size_leaf_vector":"0"}},{"base_weights":[-5.8453377E-2,-6.6705905E-2,1.2503952E0,-4.78241E-1,-3.7884396E-2,-8.508973E-1,-3.020883E-2,5.3405094E-1,-6.491382E-2],"categories":[],"categories_nodes":[],"categories_segments":[],"categories_sizes":[],"default_left":[1,1,0,1,1,0,0,0,0],"id":14,"left_children":[1,3,-1,5,7,-1,-1,-1,-1],"loss_changes":[4.7355556E0,5.0697165E0,0E0,4.64741E0,6.2486544E0,0E0,0E0,0E0,0E0],"parents":[2147483647,0,0,1,1,3,3,4,4],"right_children":[2,4,-1,6,8,-1,-1,-1,-1],"split_conditions":[3.53E0,3.337285E0,1.2503952E-2,2.505E0,8.478965E0,-8.508973E-3,-3.020883E-4,5.340509E-3,-6.491382E-4],"split_indices":[6,5,0,6,3,0,0,0,0],"split_type":[0,0,0,0,0,0,0,0,0],"sum_hessian":[4.2970193E2,4.2795264E2,1.7492857E0,2.6989086E1,4.0096356E2,1.4243058E1,1.2746028E1,1.7247746E1,3.8371582E2],"tree_param":{"num_deleted":"0","num_feature":"8","num_nodes":"9","size_leaf_vector":"0"}},{"base_weights":[-4.641713E-2,-1.020286E-1,2.4814719E-1,-3.5905235E-2,-7.2324634E-1,4.238782E-1,-4.7586843E-2,-2.5245386E-1,9.337299E-2,-9.2454803E-1,-2.112187E-1,4.3964315E-2,7.275629E-1,-4.2610204E-1,4.698416E-1],"categories":[],"categories_nodes":[],"categories_segments":[],"categories_sizes":[],"default_left":[1,1,1,1,1,1,1,0,0,0,0,0,0,0,0],"id":15,"left_children":[1,3,5,7,9,11,13,-1,-1,-1,-1,-1,-1,-1,-1],"loss_changes":[6.8021507E0,1.4297841E1,3.4496808E0,8.875946E0,3.2570019E0,4.7554154E0,5.193711E0,0E0,0E0,0E0,0E0,0E0,0E0,0E0,0E0],"parents":[2147483647,0,0,1,1,2,2,3,3,4,4,5,5,6,6],"right_children":[2,4,6,8,10,12,14,-1,-1,-1,-1,-1,-1,-1,-1],"split_conditions":[9.744844E0,8.77594E0,1.2114571E1,5.72641E0,2.085E0,1.15E1,1.25692005E1,-2.5245387E-3,9.337299E-4,-9.24548E-3,-2.112187E-3,4.3964313E-4,7.275629E-3,-4.26102E-3,4.6984158E-3],"split_indices":[5,5,5,4,6,0,4,0,0,0,0,0,0,0,0],"split_type":[0,0,0,0,0,0,0,0,0,0,0,0,0,0,0],"sum_hessian":[4.126969E2,3.4770627E2,6.499064E1,3.1521237E2,3.2493893E1,4.049462E1,2.4496016E1,1.1747763E2,1.9773474E2,2.2745806E1,9.748086E0,1.8498056E1,2.1996565E1,1.4248956E1,1.024706E1],"tree_param":{"num_deleted":"0","num_feature":"8","num_nodes":"15","size_leaf_vector":"0"}},{"base_weights":[-1.8975932E-2,-5.306524E-1,4.3159183E-3,6.6446143E-1,-7.187628E-1,3.7838164E-1,-3.2157663E-2,2.7903367E-2,-9.649842E-1,3.807145E-2,6.7640406E-1,-5.56803E-1,1.4540511E-2],"categories":[],"categories_nodes":[],"categories_segments":[],"categories_sizes":[],"default_left":[1,1,1,0,1,1,1,0,0,0,0,0,0],"id":16,"left_children":[1,3,5,-1,7,9,11,-1,-1,-1,-1,-1,-1],"loss_changes":[4.9921966E0,4.577584E0,5.4893985E0,0E0,3.0121174E0,3.599473E0,8.992442E0,0E0,0E0,0E0,0E0,0E0,0E0],"parents":[2147483647,0,0,1,1,2,2,4,4,5,5,6,6],"right_children":[2,4,6,-1,8,10,12,-1,-1,-1,-1,-1,-1],"split_conditions":[6.827525E0,4.1525946E0,3.9512548E0,6.644614E-3,1.88E0,3.25E1,4.496295E0,2.7903367E-4,-9.649841E-3,3.8071448E-4,6.7640403E-3,-5.56803E-3,1.4540511E-4],"split_indices":[3,3,5,0,6,2,5,0,0,0,0,0,0],"split_type":[0,0,0,0,0,0,0,0,0,0,0,0,0],"sum_hessian":[4.1769034E2,1.723732E1,4.00453E2,1.9997978E0,1.5237523E1,3.474466E1,3.6570834E2,3.9985611E0,1.1238961E1,1.6747978E1,1.799668E1,2.8997982E1,3.3671036E2],"tree_param":{"num_deleted":"0","num_feature":"8","num_nodes":"13","size_leaf_vector":"0"}},{"base_weights":[-3.3579286E-2,-6.2993246E-1,-2.9953178E-3,7.9431444E-1,-7.843174E-1,1.649458E-1,-7.372439E-2,-9.84665E-1,1.4203222E-1,3.0130655E-1,-2.686477E-1,-1.00498505E-1,9.214917E-1],"categories":[],"categories_nodes":[],"categories_segments":[],"categories_sizes":[],"default_left":[1,1,1,0,1,1,1,0,0,0,0,0,0],"id":17,"left_children":[1,3,5,-1,7,9,11,-1,-1,-1,-1,-1,-1],"loss_changes":[7.657175E0,5.126356E0,4.768839E0,0E0,3.6625748E0,7.115712E0,7.619299E0,0E0,0E0,0E0,0E0,0E0,0E0],"parents":[2147483647,0,0,1,1,2,2,4,4,5,5,6,6],"right_children":[2,4,6,-1,8,10,12,-1,-1,-1,-1,-1,-1],"split_conditions":[6.827525E0,4.1525946E0,1.75E1,7.943144E-3,3.48825E0,2.1950002E0,1.4026455E1,-9.846649E-3,1.4203222E-3,3.0130653E-3,-2.686477E-3,-1.0049851E-3,9.214916E-3],"split_indices":[3,3,1,0,5,7,5,0,0,0,0,0,0],"split_type":[0,0,0,0,0,0,0,0,0,0,0,0,0],"sum_hessian":[4.1893124E2,1.948079E1,3.9945047E2,1.4997865E0,1.7981003E1,1.1798099E2,2.8146948E2,1.4731891E1,3.2491124E0,8.99863E1,2.7994684E1,2.74971E2,6.4984765E0],"tree_param":{"num_deleted":"0","num_feature":"8","num_nodes":"13","size_leaf_vector":"0"}},{"base_weights":[-2.5414703E-2,-5.781486E-2,4.595544E-1,-3.0542552E-2,-5.7543635E-1,-5.432905E-2,6.949501E-1,-6.6209085E-2,3.1439084E-1,-7.9962665E-1,5.0719255E-1,-4.8027623E-1,9.931456E-1,1.0657822E0,8.664675E-2],"categories":[],"categories_nodes":[],"categories_segments":[],"categories_sizes":[],"default_left":[1,1,1,1,1,1,1,0,0,0,0,0,0,0,0],"id":18,"left_children":[1,3,5,7,9,11,13,-1,-1,-1,-1,-1,-1,-1,-1],"loss_changes":[6.644561E0,5.568267E0,3.2418904E0,4.6581616E0,5.1988144E0,4.6036034E0,4.0219545E0,0E0,0E0,0E0,0E0,0E0,0E0,0E0,0E0],"parents":[2147483647,0,0,1,1,2,2,3,3,4,4,5,5,6,6],"right_children":[2,4,6,8,10,12,14,-1,-1,-1,-1,-1,-1,-1,-1],"split_conditions":[1.2807606E1,1.140637E1,2.15E1,9.909765E0,2.05E1,1.588371E1,1.4784176E1,-6.6209084E-4,3.1439082E-3,-7.996267E-3,5.0719255E-3,-4.802762E-3,9.931455E-3,1.0657822E-2,8.664675E-4],"split_indices":[4,4,2,4,0,4,4,0,0,0,0,0,0,0,0],"split_type":[0,0,0,0,0,0,0,0,0,0,0,0,0,0,0],"sum_hessian":[4.201774E2,3.9468948E2,2.5487904E1,3.75941E2,1.8748474E1,8.249007E0,1.7238895E1,3.414434E2,3.4497612E1,1.5748654E1,2.9998207E0,6.2492795E0,1.9997282E0,1.0242708E1,6.996187E0],"tree_param":{"num_deleted":"0","num_feature":"8","num_nodes":"15","size_leaf_vector":"0"}},{"base_weights":[-4.5815382E-2,-7.8949355E-2,4.454411E-1,-5.2933767E-2,-6.343579E-1,6.653712E-1,2.1233553E-2,-9.13411E-2,3.274271E-1,-9.185507E-1,6.715149E-1,-2.7811003E-1,9.8323375E-1,-3.9506632E-1,6.4095277E-1],"categories":[],"categories_nodes":[],"categories_segments":[],"categories_sizes":[],"default_left":[1,1,1,1,1,1,1,0,0,0,0,0,0,0,0],"id":19,"left_children":[1,3,5,7,9,11,13,-1,-1,-1,-1,-1,-1,-1,-1],"loss_changes":[6.947636E0,5.727149E0,2.5033355E0,5.6095076E0,7.2034564E0,5.5928874E0,2.8965926E0,0E0,0E0,0E0,0E0,0E0,0E0,0E0,0E0],"parents":[2147483647,0,0,1,1,2,2,3,3,4,4,5,5,6,6],"right_children":[2,4,6,8,10,12,14,-1,-1,-1,-1,-1,-1,-1,-1],"split_conditions":[1.2821196E1,1.1520525E1,1.487299E1,9.9908695E0,2.05E1,2.1E1,1.7090916E1,-9.13411E-4,3.2742708E-3,-9.185507E-3,6.715149E-3,-2.7811E-3,9.8323375E-3,-3.950663E-3,6.4095277E-3],"split_indices":[4,4,4,4,0,2,4,0,0,0,0,0,0,0,0],"split_type":[0,0,0,0,0,0,0,0,0,0,0,0,0,0,0],"sum_hessian":[4.236698E2,3.976862E2,2.598361E1,3.8093817E2,1.674801E1,1.673754E1,9.24607E0,3.4669058E2,3.4247585E1,1.3998223E1,2.749787E0,4.249428E0,1.2488112E1,5.7475967E0,3.4984727E0],"tree_param":{"num_deleted":"0","num_feature":"8","num_nodes":"15","size_leaf_vector":"0"}}]},"name":"gbtree"},"learner_model_param":{"base_score":"5E-1","boost_from_average":"1","num_class":"0","num_feature":"8","num_target":"1"},"objective":{"name":"binary:logistic","reg_loss_param":{"scale_pos_weight":"1"}}},"version":[1,7,3]}