{"learner":{"attributes":{"best_iteration":"17","best_ntree_limit":"18","scikit_learn":"{\"use_label_encoder\": null, \"n_estimators\": 18, \"objective\": \"binary:logistic\", \"max_depth\": 3, \"max_leaves\": null, \"max_bin\": null, \"grow_policy\": null, \"learning_rate\": 0.01, \"verbosity\": null, \"booster\": \"gbtree\", \"tree_method\": null, \"gamma\": 0.03, \"min_child_weight\": null, \"max_delta_step\": null, \"subsample\": 0.8, \"sampling_method\": null, \"colsample_bytree\": 1, \"colsample_bylevel\": null, \"colsample_bynode\": null, \"reg_alpha\": null, \"reg_lambda\": null, \"scale_pos_weight\": null, \"base_score\": null, \"missing\": NaN, \"num_parallel_tree\": null, \"random_state\": 1, \"n_jobs\": null, \"monotone_constraints\": null, \"interaction_constraints\": null, \"importance_type\": null, \"gpu_id\": null, \"validate_parameters\": null, \"predictor\": null, \"enable_categorical\": false, \"feature_types\": null, \"max_cat_to_onehot\": null, \"max_cat_threshold\": null, \"eval_metric\": null, \"early_stopping_rounds\": null, \"callbacks\": null, \"classes_\": [0.0, 1.0], \"n_classes_\": 2, \"evals_result_\": {\"validation_0\": {\"error\": [0.39923773225345405, 0.38828013339685563, 0.3854216293473082, 0.38446879466412576, 0.3835159599809433, 0.3820867079561696, 0.38399237732253455, 0.38446879466412576, 0.38446879466412576, 0.38446879466412576, 0.384945212005717, 0.38446879466412576, 0.3835159599809433, 0.3835159599809433, 0.3830395426393521, 0.3820867079561696, 0.3806574559313959, 0.3806574559313959], \"logloss\": [0.692591272631732, 0.6919236006539115, 0.6913796695940491, 0.6907559279148325, 0.6902439034570109, 0.6896928332146149, 0.6891749763045781, 0.6885987746823453, 0.6881341412556973, 0.6875863397274772, 0.6871470016147364, 0.6867401828761326, 0.6862539014343764, 0.6857811670010291, 0.6853597319199961, 0.6848815807619226, 0.684425615452198, 0.6839506007081386], \"aucpr\": [0.6428214213549759, 0.6568657417787579, 0.6591565353608874, 0.6654223118226569, 0.6636479062132994, 0.6712844121425334, 0.6748238821598154, 0.6754745718208651, 0.6771586053534463, 0.6793749097033692, 0.6822580064254069, 0.6847513456757266, 0.684607148904709, 0.6879261970154342, 0.6847991957946874, 0.6853094575142225, 0.6850975014593583, 0.6858357368183219]}, \"validation_1\": {\"error\": [0.42777777777777776, 0.4122222222222222, 0.4077777777777778, 0.4222222222222222, 0.42, 0.42, 0.4066666666666667, 0.4077777777777778, 0.4033333333333333, 0.4011111111111111, 0.4011111111111111, 0.4, 0.4, 0.4, 0.4, 0.3988888888888889, 0.3988888888888889, 0.3988888888888889], \"logloss\": [0.6927611300018098, 0.6922994052701527, 0.6919063234991497, 0.6916164571046829, 0.6912284003363716, 0.6907716202735901, 0.6903474449449115, 0.6899620603852802, 0.6895382757319345, 0.6891953629255295, 0.6888333406713274, 0.688461593190829, 0.6881186099184884, 0.6878346608082453, 0.6875417467620638, 0.6871873537037108, 0.6869305712646908, 0.6866295655568441], \"aucpr\": [0.5909803724775652, 0.5977716139462569, 0.5988504444070907, 0.5981656686589819, 0.5968984795326578, 0.609052557403098, 0.6084755582546004, 0.6109594999362369, 0.6088174817842876, 0.6080111294799787, 0.6122970269469724, 0.6123520222053697, 0.613369103628841, 0.613204830387289, 0.6081118264878653, 0.6079060013750579, 0.6088760628733824, 0.6090762049034322]}}, \"_estimator_type\": \"classifier\"}"},"feature_names":["total_amount","bull_amount","bear_amount","bull_ratio","bear_ratio"],"feature_types":["float","float","float","float","float"],"gradient_booster":{"model":{"gbtree_model_param":{"num_parallel_tree":"1","num_trees":"18","size_leaf_vector":"0"},"tree_info":[0,0,0,0,0,0,0,0,0,0,0,0,0,0,0,0,0,0],"trees":[{"base_weights":[3.854985E-1,4.103512E-1,-7.777778E-1,4.7858196E-1,6.593407E-2,2.2222222E-1,-9.677419E-1,3.507363E-1,6.3175124E-1,-3.1496063E-2,1.1304348E0,-1.4285715E0,-4.7619048E-1],"categories":[],"categories_nodes":[],"categories_segments":[],"categories_sizes":[],"default_left":[1,1,1,1,1,0,1,0,0,0,0,0,0],"id":0,"left_children":[1,3,5,7,9,-1,11,-1,-1,-1,-1,-1,-1],"loss_changes":[1.22809105E1,9.503502E0,1.9247313E0,6.4069366E0,7.1141148E0,0E0,1.0752683E0,0E0,0E0,0E0,0E0,0E0,0E0],"parents":[2147483647,0,0,1,1,2,2,3,3,4,4,6,6],"right_children":[2,4,6,8,10,-1,12,-1,-1,-1,-1,-1,-1],"split_conditions":[2.795E0,1.898779E1,1.025127E1,6.83114E0,1.647595E1,2.2222223E-3,1.48187E1,3.507363E-3,6.317512E-3,-3.1496063E-4,1.1304347E-2,-1.4285714E-2,-4.7619045E-3],"split_indices":[4,0,0,1,1,0,0,0,0,0,0,0,0],"split_type":[0,0,0,0,0,0,0,0,0,0,0,0,0],"sum_hessian":[4.1275E2,4.0475E2,8E0,3.375E2,6.725E1,1.25E0,6.75E0,1.8575E2,1.5175E2,6.25E1,4.75E0,2.5E0,4.25E0],"tree_param":{"num_deleted":"0","num_feature":"5","num_nodes":"13","size_leaf_vector":"0"}},{"base_weights":[4.3055663E-1,5.1373506E-1,6.3220344E-2,3.4880245E-1,7.201184E-1,-8.1273675E-1,1.4362572E-1,7.031656E-1,2.4851455E-1,1.0597293E0,5.8467406E-1,-1.15836985E-1,-1.4267613E0,-6.323454E-1,2.5612545E-1],"categories":[],"categories_nodes":[],"categories_segments":[],"categories_sizes":[],"default_left":[1,1,1,1,1,1,1,0,0,0,0,0,0,0,0],"id":1,"left_children":[1,3,5,7,9,11,13,-1,-1,-1,-1,-1,-1,-1,-1],"loss_changes":[1.2769768E1,1.1373184E1,5.6456013E0,6.6397076E0,6.314598E0,2.7231379E0,6.512767E0,0E0,0E0,0E0,0E0,0E0,0E0,0E0,0E0],"parents":[2147483647,0,0,1,1,2,2,3,3,4,4,5,5,6,6],"right_children":[2,4,6,8,10,12,14,-1,-1,-1,-1,-1,-1,-1,-1],"split_conditions":[1.8927996E1,6.80462E0,1.645E0,3.85776E0,5.69252E0,8.6681595E0,1.9362286E1,7.031656E-3,2.4851453E-3,1.0597293E-2,5.8467407E-3,-1.1583698E-3,-1.4267612E-2,-6.3234535E-3,2.5612544E-3],"split_indices":[0,1,3,2,2,1,0,0,0,0,0,0,0,0,0],"split_type":[0,0,0,0,0,0,0,0,0,0,0,0,0,0,0],"sum_hessian":[4.1799762E2,3.4049783E2,7.7499794E1,1.9074931E2,1.4974852E2,5.7499843E0,7.174981E1,4.0749874E1,1.4999944E2,4.0749596E1,1.0899892E2,3.2499914E0,2.4999928E0,8.499985E0,6.3249825E1],"tree_param":{"num_deleted":"0","num_feature":"5","num_nodes":"15","size_leaf_vector":"0"}},{"base_weights":[3.4731588E-1,4.2560762E-1,-1.471067E-2,4.508177E-1,-3.4905872E-1,-8.328054E-1,7.7055894E-2,4.3272308E-1,1.1868899E0,-7.148249E-1,1.7992306E-1,2.029738E-3,-1.3605134E0,-8.5146075E-1,1.7859793E-1],"categories":[],"categories_nodes":[],"categories_segments":[],"categories_sizes":[],"default_left":[1,1,1,1,1,1,1,0,0,0,0,0,0,0,0],"id":2,"left_children":[1,3,5,7,9,11,13,-1,-1,-1,-1,-1,-1,-1,-1],"loss_changes":[1.1967007E1,6.9338875E0,5.769733E0,3.9681168E0,2.353652E0,3.4169393E0,6.681162E0,0E0,0E0,0E0,0E0,0E0,0E0,0E0,0E0],"parents":[2147483647,0,0,1,1,2,2,3,3,4,4,5,5,6,6],"right_children":[2,4,6,8,10,12,14,-1,-1,-1,-1,-1,-1,-1,-1],"split_conditions":[1.898779E1,2.6950002E0,1.655E0,3.135E0,4.615135E0,8.187895E0,1.9362286E1,4.3272306E-3,1.1868899E-2,-7.148249E-3,1.7992306E-3,2.0297379E-5,-1.3605135E-2,-8.514607E-3,1.7859793E-3],"split_indices":[0,4,3,3,1,1,0,0,0,0,0,0,0,0,0],"split_type":[0,0,0,0,0,0,0,0,0,0,0,0,0,0,0],"sum_hessian":[4.2098993E2,3.459905E2,7.499942E1,3.3549063E2,1.0499878E1,6.74982E0,6.8249596E1,3.28991E2,6.499612E0,5.9999027E0,4.4999747E0,2.9999878E0,3.7498324E0,5.999934E0,6.2249664E1],"tree_param":{"num_deleted":"0","num_feature":"5","num_nodes":"15","size_leaf_vector":"0"}},{"base_weights":[3.8330403E-1,4.7128108E-1,-2.2331852E-2,3.1648162E-1,6.57512E-1,-4.3031356E-1,2.1990898E-1,3.615173E-1,-4.7282684E-1,7.505058E-1,9.41608E-2,-9.7699577E-1,-3.2993417E-2,-9.4360954E-1,3.7213993E-1],"categories":[],"categories_nodes":[],"categories_segments":[],"categories_sizes":[],"default_left":[1,1,1,1,1,1,1,0,0,0,0,0,0,0,0],"id":3,"left_children":[1,3,5,7,9,11,13,-1,-1,-1,-1,-1,-1,-1,-1],"loss_changes":[1.4685925E1,9.535385E0,7.432603E0,6.8002415E0,7.917862E0,6.04949E0,8.720066E0,0E0,0E0,0E0,0E0,0E0,0E0,0E0,0E0],"parents":[2147483647,0,0,1,1,2,2,3,3,4,4,5,5,6,6],"right_children":[2,4,6,8,10,12,14,-1,-1,-1,-1,-1,-1,-1,-1],"split_conditions":[1.882708E1,6.80462E0,9.89811E0,2.6950002E0,8.89843E0,2.3649998E0,1.645E0,3.615173E-3,-4.7282684E-3,7.505058E-3,9.41608E-4,-9.7699575E-3,-3.2993418E-4,-9.436095E-3,3.7213992E-3],"split_indices":[0,1,2,4,2,3,3,0,0,0,0,0,0,0,0],"split_type":[0,0,0,0,0,0,0,0,0,0,0,0,0,0,0],"sum_hessian":[4.1022964E2,3.3698108E2,7.3248566E1,1.8549377E2,1.514873E2,2.6999557E1,4.624901E1,1.7599403E2,9.499739E0,1.2973878E2,2.1748526E1,1.0749753E1,1.6249805E1,4.7494993E0,4.1499508E1],"tree_param":{"num_deleted":"0","num_feature":"5","num_nodes":"15","size_leaf_vector":"0"}},{"base_weights":[3.9905915E-1,4.1137344E-1,-9.83088E-1,4.575569E-1,1.8020763E-1,-2.0739052E-1,-1.2602075E0,3.1887922E-1,6.121833E-1,-6.535945E-1,2.964556E-1],"categories":[],"categories_nodes":[],"categories_segments":[],"categories_sizes":[],"default_left":[1,1,1,1,1,0,0,0,0,0,0],"id":4,"left_children":[1,3,5,7,9,-1,-1,-1,-1,-1,-1],"loss_changes":[7.543747E0,4.3637238E0,5.9832096E-1,7.234123E0,7.0754604E0,0E0,0E0,0E0,0E0,0E0,0E0],"parents":[2147483647,0,0,1,1,2,2,3,3,4,4],"right_children":[2,4,6,8,10,-1,-1,-1,-1,-1,-1],"split_conditions":[1.8394016E1,1.8927996E1,3.3475685E1,6.6524696E0,1.938958E1,-2.0739052E-3,-1.2602075E-2,3.1887922E-3,6.1218324E-3,-6.535945E-3,2.9645558E-3],"split_indices":[2,0,0,1,0,0,0,0,0,0,0],"split_type":[0,0,0,0,0,0,0,0,0,0,0],"sum_hessian":[4.1846292E2,4.1546368E2,2.9992208E0,3.454655E2,6.9998184E1,1.2496498E0,1.7495711E0,1.8373964E2,1.6172588E2,7.999369E0,6.1998817E1],"tree_param":{"num_deleted":"0","num_feature":"5","num_nodes":"11","size_leaf_vector":"0"}},{"base_weights":[4.0784955E-1,4.3138888E-1,-8.612564E-1,5.261054E-1,1.5901847E-1,-1.2841588E0,-3.0149713E-1,4.991735E-1,1.4695619E0,1.0317117E-1,7.6340795E-1,6.6778755E-1,-8.3856165E-1],"categories":[],"categories_nodes":[],"categories_segments":[],"categories_sizes":[],"default_left":[1,1,1,1,1,0,1,0,0,0,0,0,0],"id":5,"left_children":[1,3,5,7,9,-1,11,-1,-1,-1,-1,-1,-1],"loss_changes":[1.2946747E1,1.0595253E1,1.506424E0,7.0595093E0,3.5747128E0,0E0,3.0323572E0,0E0,0E0,0E0,0E0,0E0,0E0],"parents":[2147483647,0,0,1,1,2,2,3,3,4,4,6,6],"right_children":[2,4,6,8,10,-1,12,-1,-1,-1,-1,-1,-1],"split_conditions":[2.795E0,1.7075901E1,1.425439E1,1.0154905E1,1.5334345E1,-1.2841588E-2,1.8524525E1,4.991735E-3,1.4695619E-2,1.0317117E-3,7.634079E-3,6.6778753E-3,-8.385616E-3],"split_indices":[4,0,0,1,1,0,0,0,0,0,0,0,0],"split_type":[0,0,0,0,0,0,0,0,0,0,0,0,0],"sum_hessian":[4.1994296E2,4.129438E2,6.9991817E0,3.0570398E2,1.0723981E2,3.249804E0,3.7493777E0,2.9870618E2,6.9977765E0,9.924042E1,7.999392E0,1.2499988E0,2.499379E0],"tree_param":{"num_deleted":"0","num_feature":"5","num_nodes":"13","size_leaf_vector":"0"}},{"base_weights":[4.0345663E-1,-6.4751345E-1,4.1987476E-1,-1.1253003E0,-1.0161083E-1,5.462212E-1,3.4036028E-1,5.441717E-1,-7.715741E-1,4.4266528E-1,8.348964E-1,-1.0803236E0,3.6319613E-1],"categories":[],"categories_nodes":[],"categories_segments":[],"categories_sizes":[],"default_left":[1,1,1,0,1,1,1,0,0,0,0,0,0],"id":6,"left_children":[1,3,5,-1,7,9,11,-1,-1,-1,-1,-1,-1],"loss_changes":[7.401146E0,1.645864E0,3.907196E0,0E0,2.2582185E0,4.2853775E0,8.590858E0,0E0,0E0,0E0,0E0,0E0,0E0],"parents":[2147483647,0,0,1,1,2,2,4,4,5,5,6,6],"right_children":[2,4,6,-1,8,10,12,-1,-1,-1,-1,-1,-1],"split_conditions":[1.535E0,4.377925E0,5.69252E0,-1.1253003E-2,1.8935865E1,6.95539E0,5.7314053E0,5.441717E-3,-7.7157407E-3,4.4266526E-3,8.348963E-3,-1.0803236E-2,3.6319613E-3],"split_indices":[3,1,2,0,0,1,2,0,0,0,0,0,0],"split_type":[0,0,0,0,0,0,0,0,0,0,0,0,0],"sum_hessian":[4.1217178E2,5.74861E0,4.0642316E2,2.4995701E0,3.2490396E0,1.5471527E2,2.517079E2,1.74998E0,1.4990597E0,1.15732285E2,3.898298E1,3.2493358E0,2.4845857E2],"tree_param":{"num_deleted":"0","num_feature":"5","num_nodes":"13","size_leaf_vector":"0"}},{"base_weights":[3.724157E-1,4.422862E-1,1.4034424E-2,3.160649E-1,6.020338E-1,-7.513495E-1,1.4717083E-1,3.4558332E-1,-6.910504E-1,7.13215E-1,2.898272E-1,1.2362793E-1,-1.160684E0,-7.966697E-1,2.613631E-1],"categories":[],"categories_nodes":[],"categories_segments":[],"categories_sizes":[],"default_left":[1,1,1,1,1,1,1,0,0,0,0,0,0,0,0],"id":7,"left_children":[1,3,5,7,9,11,13,-1,-1,-1,-1,-1,-1,-1,-1],"loss_changes":[1.0539391E1,6.9153748E0,7.2175026E0,6.1536903E0,5.154068E0,3.9034176E0,6.7014756E0,0E0,0E0,0E0,0E0,0E0,0E0,0E0,0E0],"parents":[2147483647,0,0,1,1,2,2,3,3,4,4,5,5,6,6],"right_children":[2,4,6,8,10,12,14,-1,-1,-1,-1,-1,-1,-1,-1],"split_conditions":[1.898779E1,6.83114E0,1.735E0,6.7438097E0,1.7075901E1,8.187895E0,1.9362286E1,3.455833E-3,-6.910504E-3,7.1321498E-3,2.898272E-3,1.2362793E-3,-1.16068395E-2,-7.966697E-3,2.6136308E-3],"split_indices":[0,1,3,1,0,1,0,0,0,0,0,0,0,0,0],"split_type":[0,0,0,0,0,0,0,0,0,0,0,0,0,0,0],"sum_hessian":[4.2014517E2,3.5140137E2,6.87438E1,1.9796327E2,1.534381E2,9.497937E0,5.9245865E1,1.9296437E2,4.9989057E0,1.12198265E2,4.1239838E1,3.2496307E0,6.2483063E0,5.7492933E0,5.349657E1],"tree_param":{"num_deleted":"0","num_feature":"5","num_nodes":"15","size_leaf_vector":"0"}},{"base_weights":[3.7245393E-1,3.9673397E-1,-4.2748815E-1,4.110028E-1,-5.0534075E-1,-6.5782344E-1,7.7996457E-1,7.0991045E-1,3.7076193E-1,-9.7882056E-1,1.3441072E-1,-1.1621398E0,-2.5059637E-1],"categories":[],"categories_nodes":[],"categories_segments":[],"categories_sizes":[],"default_left":[1,1,1,1,1,1,0,0,0,0,0,0,0],"id":8,"left_children":[1,3,5,7,9,11,-1,-1,-1,-1,-1,-1,-1],"loss_changes":[8.256527E0,5.415783E0,4.058183E0,4.5345306E0,2.1759167E0,2.0186143E0,0E0,0E0,0E0,0E0,0E0,0E0,0E0],"parents":[2147483647,0,0,1,1,2,2,3,3,4,4,5,5],"right_children":[2,4,6,8,10,12,-1,-1,-1,-1,-1,-1,-1],"split_conditions":[1.373461E1,2.795E0,1.599808E1,3.85776E0,1.4020225E1,1.4421835E1,7.7996454E-3,7.0991046E-3,3.7076192E-3,-9.788206E-3,1.3441072E-3,-1.1621398E-2,-2.5059637E-3],"split_indices":[2,4,1,2,0,2,0,0,0,0,0,0,0],"split_type":[0,0,0,0,0,0,0,0,0,0,0,0,0],"sum_hessian":[4.1536646E2,4.0361972E2,1.1746718E1,3.9787067E2,5.7490563E0,1.0247155E1,1.4995636E0,4.5233852E1,3.526368E2,2.9992855E0,2.7497709E0,3.749691E0,6.497464E0],"tree_param":{"num_deleted":"0","num_feature":"5","num_nodes":"13","size_leaf_vector":"0"}},{"base_weights":[3.5684982E-1,4.2777213E-1,1.6206771E-2,7.365621E-1,3.7424406E-1,-6.528021E-1,1.4336334E-1,4.7322193E-1,9.787483E-1,-1.3032081E0,3.96954E-1,1.6030928E-1,-8.569287E-1,-1.796842E-1,6.334647E-1],"categories":[],"categories_nodes":[],"categories_segments":[],"categories_sizes":[],"default_left":[1,1,1,1,1,1,1,0,0,0,0,0,0,0,0],"id":9,"left_children":[1,3,5,7,9,11,13,-1,-1,-1,-1,-1,-1,-1,-1],"loss_changes":[1.022044E1,5.5151443E0,6.3877897E0,2.772007E0,1.1969269E1,2.1286106E0,1.008717E1,0E0,0E0,0E0,0E0,0E0,0E0,0E0,0E0],"parents":[2147483647,0,0,1,1,2,2,3,3,4,4,5,5,6,6],"right_children":[2,4,6,8,10,12,14,-1,-1,-1,-1,-1,-1,-1,-1],"split_conditions":[1.898779E1,3.9526901E0,1.735E0,3.280305E0,3.318185E0,7.9530096E0,1.0896561E1,4.732219E-3,9.787483E-3,-1.3032081E-2,3.96954E-3,1.6030928E-3,-8.569287E-3,-1.796842E-3,6.3346466E-3],"split_indices":[0,2,3,2,1,1,2,0,0,0,0,0,0,0,0],"split_type":[0,0,0,0,0,0,0,0,0,0,0,0,0,0,0],"sum_hessian":[4.2233267E2,3.493432E2,7.298948E1,4.972604E1,2.9961716E2,1.0997019E1,6.199246E1,2.5237793E1,2.4488247E1,3.2489772E0,2.963682E2,2.2498188E0,8.7472E0,3.7745857E1,2.42466E1],"tree_param":{"num_deleted":"0","num_feature":"5","num_nodes":"15","size_leaf_vector":"0"}},{"base_weights":[3.7172908E-1,-5.4467964E-1,3.861433E-1,2.3999915E-1,-7.569882E-1,6.774733E-1,3.4621292E-1,-1.0457652E0,-2.7249962E-1,2.0705102E-1,1.0098314E0,1.18272364E-1,4.3946376E-1],"categories":[],"categories_nodes":[],"categories_segments":[],"categories_sizes":[],"default_left":[1,1,1,0,1,1,1,0,0,0,0,0,0],"id":10,"left_children":[1,3,5,-1,7,9,11,-1,-1,-1,-1,-1,-1],"loss_changes":[5.8248863E0,1.3473127E0,4.640209E0,0E0,5.191722E-1,7.525055E0,7.8249664E0,0E0,0E0,0E0,0E0,0E0,0E0],"parents":[2147483647,0,0,1,1,2,2,4,4,5,5,6,6],"right_children":[2,4,6,-1,8,10,12,-1,-1,-1,-1,-1,-1],"split_conditions":[1.535E0,1.405E0,3.8900552E0,2.3999915E-3,4.377925E0,3.15444E0,1.221626E1,-1.0457652E-2,-2.724996E-3,2.0705103E-3,1.0098314E-2,1.1827236E-3,4.3946374E-3],"split_indices":[3,3,2,0,1,2,0,0,0,0,0,0,0],"split_type":[0,0,0,0,0,0,0,0,0,0,0,0,0],"sum_hessian":[4.2404535E2,5.9968667E0,4.1804846E2,1.2492591E0,4.7476077E0,4.846729E1,3.6958118E2,2.2487555E0,2.4988523E0,2.0737806E1,2.7729483E1,1.0795831E2,2.6162286E2],"tree_param":{"num_deleted":"0","num_feature":"5","num_nodes":"13","size_leaf_vector":"0"}},{"base_weights":[3.2558197E-1,3.5114738E-1,-4.8846585E-1,3.6943927E-1,-2.9888037E-1,-7.1440744E-1,7.6903373E-1,3.53751E-1,1.2272888E0,-5.40979E-1,2.1132635E-1,2.3710659E-1,-8.5028416E-1],"categories":[],"categories_nodes":[],"categories_segments":[],"categories_sizes":[],"default_left":[1,1,1,1,1,1,0,0,0,0,0,0,0],"id":11,"left_children":[1,3,5,7,9,11,-1,-1,-1,-1,-1,-1,-1],"loss_changes":[8.938641E0,4.9737434E0,4.3126783E0,4.9258347E0,1.5653907E0,1.7202749E0,0E0,0E0,0E0,0E0,0E0,0E0,0E0],"parents":[2147483647,0,0,1,1,2,2,3,3,4,4,5,5],"right_children":[2,4,6,8,10,12,-1,-1,-1,-1,-1,-1,-1],"split_conditions":[1.373461E1,2.6950002E0,1.599808E1,2.5949998E0,1.58105755E1,8.219225E0,7.690337E-3,3.53751E-3,1.2272888E-2,-5.40979E-3,2.1132634E-3,2.3710658E-3,-8.502841E-3],"split_indices":[2,4,1,4,0,1,0,0,0,0,0,0,0],"split_type":[0,0,0,0,0,0,0,0,0,0,0,0,0],"sum_hessian":[4.2026364E2,4.0801834E2,1.2245301E1,3.9727072E2,1.0747599E1,1.0746333E1,1.4989679E0,3.9152298E2,5.747755E0,7.2480197E0,3.4995785E0,1.2497315E0,9.496601E0],"tree_param":{"num_deleted":"0","num_feature":"5","num_nodes":"13","size_leaf_vector":"0"}},{"base_weights":[3.3964723E-1,4.0922713E-1,3.1026292E-3,4.3224198E-1,-2.9370376E-1,-6.969511E-1,9.289111E-2,4.1720694E-1,1.3596463E0,-7.4671704E-1,2.2430322E-1,5.442844E-1,-1.0994159E0,-5.9107226E-1,2.3228432E-1],"categories":[],"categories_nodes":[],"categories_segments":[],"categories_sizes":[],"default_left":[1,1,1,1,1,1,1,0,0,0,0,0,0,0,0],"id":12,"left_children":[1,3,5,7,9,11,13,-1,-1,-1,-1,-1,-1,-1,-1],"loss_changes":[9.938587E0,5.8174286E0,4.69928E0,4.1874657E0,2.9240599E0,4.84428E0,6.4518833E0,0E0,0E0,0E0,0E0,0E0,0E0,0E0,0E0],"parents":[2147483647,0,0,1,1,2,2,3,3,4,4,5,5,6,6],"right_children":[2,4,6,8,10,12,14,-1,-1,-1,-1,-1,-1,-1,-1],"split_conditions":[1.8927996E1,2.6950002E0,1.9349041E1,2.605E0,4.4368696E0,8.29122E0,1.745E0,4.1720695E-3,1.3596463E-2,-7.4671702E-3,2.2430322E-3,5.442844E-3,-1.0994159E-2,-5.9107225E-3,2.322843E-3],"split_indices":[0,4,0,4,1,1,3,0,0,0,0,0,0,0,0],"split_type":[0,0,0,0,0,0,0,0,0,0,0,0,0,0,0],"sum_hessian":[4.2347668E2,3.5074493E2,7.273175E1,3.3999805E2,1.0746873E1,7.499359E0,6.523239E1,3.360007E2,3.9973555E0,5.497563E0,5.2493095E0,1.7499591E0,5.7494E0,1.0495177E1,5.473721E1],"tree_param":{"num_deleted":"0","num_feature":"5","num_nodes":"15","size_leaf_vector":"0"}},{"base_weights":[3.1788018E-1,4.0009746E-1,-5.1881693E-2,4.8235193E-1,1.5930803E-1,-1.2042034E-1,8.644893E-1,3.613639E-1,6.178599E-1,-4.726768E-1,2.9900858E-1,-3.514525E-2,-8.312326E-1,1.3431985E0,1.197784E-1],"categories":[],"categories_nodes":[],"categories_segments":[],"categories_sizes":[],"default_left":[1,1,1,1,1,1,1,0,0,0,0,0,0,0,0],"id":13,"left_children":[1,3,5,7,9,11,13,-1,-1,-1,-1,-1,-1,-1,-1],"loss_changes":[1.2779606E1,6.725712E0,4.954579E0,3.9658203E0,7.994237E0,4.3794055E0,1.7986164E0,0E0,0E0,0E0,0E0,0E0,0E0,0E0,0E0],"parents":[2147483647,0,0,1,1,2,2,3,3,4,4,5,5,6,6],"right_children":[2,4,6,8,10,12,14,-1,-1,-1,-1,-1,-1,-1,-1],"split_conditions":[1.877038E1,2.165E0,1.6599651E1,7.187545E0,2.225E0,2.695359E1,2.725E0,3.6136387E-3,6.178599E-3,-4.726768E-3,2.9900856E-3,-3.5145247E-4,-8.312326E-3,1.3431985E-2,1.197784E-3],"split_indices":[0,4,1,1,4,0,3,0,0,0,0,0,0,0,0],"split_type":[0,0,0,0,0,0,0,0,0,0,0,0,0,0,0],"sum_hessian":[4.186876E2,3.4245908E2,7.62285E1,2.5451329E2,8.794579E1,7.1731995E1,4.496501E0,1.3639764E2,1.18115654E2,1.5489601E1,7.245619E1,6.498526E1,6.7467403E0,2.247883E0,2.248618E0],"tree_param":{"num_deleted":"0","num_feature":"5","num_nodes":"15","size_leaf_vector":"0"}},{"base_weights":[3.2984364E-1,3.43335E-1,-1.1963347E0,3.945848E-1,8.3736554E-2,2.5518027E-1,5.676552E-1,-2.0836619E-1,4.1423523E-1],"categories":[],"categories_nodes":[],"categories_segments":[],"categories_sizes":[],"default_left":[1,1,0,1,1,0,0,0,0],"id":14,"left_children":[1,3,-1,5,7,-1,-1,-1,-1],"loss_changes":[9.272392E0,5.6530724E0,0E0,8.46006E0,7.0113826E0,0E0,0E0,0E0,0E0],"parents":[2147483647,0,0,1,1,3,3,4,4],"right_children":[2,4,-1,6,8,-1,-1,-1,-1],"split_conditions":[1.8394016E1,1.898779E1,-1.1963347E-2,6.83114E0,2.2190735E1,2.5518027E-3,5.6765517E-3,-2.0836617E-3,4.1423524E-3],"split_indices":[2,0,0,1,0,0,0,0,0],"split_type":[0,0,0,0,0,0,0,0,0],"sum_hessian":[4.2938086E2,4.2638663E2,2.9942122E0,3.5565366E2,7.073296E1,1.9835628E2,1.5729738E2,3.7743702E1,3.2989258E1],"tree_param":{"num_deleted":"0","num_feature":"5","num_nodes":"9","size_leaf_vector":"0"}},{"base_weights":[3.5202715E-1,4.357746E-1,9.77268E-2,3.3510062E-1,5.734525E-1,2.5479734E-1,-3.0157536E-1,6.423687E-1,2.2341582E-1,6.250491E-1,6.1654054E-2,-1.1317216E0,2.93645E-1,-3.255978E-2,-8.714462E-1],"categories":[],"categories_nodes":[],"categories_segments":[],"categories_sizes":[],"default_left":[1,1,1,1,1,1,1,0,0,0,0,0,0,0,0],"id":15,"left_children":[1,3,5,7,9,11,13,-1,-1,-1,-1,-1,-1,-1,-1],"loss_changes":[8.760513E0,4.11372E0,6.58023E0,6.0970364E0,3.3893242E0,4.3699093E0,4.529558E0,0E0,0E0,0E0,0E0,0E0,0E0,0E0,0E0],"parents":[2147483647,0,0,1,1,2,2,3,3,4,4,5,5,6,6],"right_children":[2,4,6,8,10,12,14,-1,-1,-1,-1,-1,-1,-1,-1],"split_conditions":[8.646746E0,6.953425E0,2.3649998E0,3.9526901E0,1.893814E1,8.70764E0,1.685E0,6.4236866E-3,2.234158E-3,6.250491E-3,6.1654055E-4,-1.1317216E-2,2.9364498E-3,-3.2559776E-4,-8.714462E-3],"split_indices":[2,1,4,2,0,2,3,0,0,0,0,0,0,0,0],"split_type":[0,0,0,0,0,0,0,0,0,0,0,0,0,0,0],"sum_hessian":[4.1234903E2,3.0965747E2,1.0269156E2,1.808493E2,1.2880818E2,7.396026E1,2.8731304E1,4.6944263E1,1.3390504E2,1.168107E2,1.1997476E1,1.2490182E0,7.271124E1,2.023583E1,8.495474E0],"tree_param":{"num_deleted":"0","num_feature":"5","num_nodes":"15","size_leaf_vector":"0"}},{"base_weights":[3.1586528E-1,4.0078506E-1,5.7653036E-2,2.8238055E-1,5.571939E-1,-1.0172515E0,1.1043293E-1,3.4069654E-1,-3.8658923E-1,6.5431386E-1,2.1139272E-1,-2.288633E-1,-1.2189434E0,1.0420215E0,5.6065727E-2],"categories":[],"categories_nodes":[],"categories_segments":[],"categories_sizes":[],"default_left":[1,1,1,1,1,1,1,0,0,0,0,0,0,0,0],"id":16,"left_children":[1,3,5,7,9,11,13,-1,-1,-1,-1,-1,-1,-1,-1],"loss_changes":[9.149132E0,5.6690865E0,6.051813E0,7.1962004E0,4.3795586E0,5.157466E-1,5.041474E0,0E0,0E0,0E0,0E0,0E0,0E0,0E0,0E0],"parents":[2147483647,0,0,1,1,2,2,3,3,4,4,5,5,6,6],"right_children":[2,4,6,8,10,12,14,-1,-1,-1,-1,-1,-1,-1,-1],"split_conditions":[8.646746E0,6.83114E0,8.762896E0,6.543395E0,1.71455E1,1.458554E1,8.9044895E0,3.4069654E-3,-3.8658923E-3,6.5431385E-3,2.1139272E-3,-2.288633E-3,-1.2189433E-2,1.0420215E-2,5.6065724E-4],"split_indices":[2,1,2,1,0,0,2,0,0,0,0,0,0,0,0],"split_type":[0,0,0,0,0,0,0,0,0,0,0,0,0,0,0],"sum_hessian":[4.173015E2,3.1361044E2,1.0369107E2,1.800867E2,1.3352374E2,3.997867E0,9.969321E1,1.6609816E2,1.3988536E1,1.0354925E2,2.9974493E1,1.2492855E0,2.748582E0,4.4955225E0,9.5197685E1],"tree_param":{"num_deleted":"0","num_feature":"5","num_nodes":"15","size_leaf_vector":"0"}},{"base_weights":[3.3356106E-1,4.1305605E-1,5.653826E-2,2.8762826E-1,5.689652E-1,-4.6088737E-1,2.0558417E-1,3.0568898E-1,-8.034338E-1,6.291785E-1,4.6948012E-2,4.6727532E-1,-6.3665986E-1,7.520145E-2,8.7567824E-1],"categories":[],"categories_nodes":[],"categories_segments":[],"categories_sizes":[],"default_left":[1,1,1,1,1,1,1,0,0,0,0,0,0,0,0],"id":17,"left_children":[1,3,5,7,9,11,13,-1,-1,-1,-1,-1,-1,-1,-1],"loss_changes":[9.214661E0,6.207409E0,7.3976655E0,3.8432016E0,4.503849E0,3.8027682E0,6.41775E0,0E0,0E0,0E0,0E0,0E0,0E0,0E0,0E0],"parents":[2147483647,0,0,1,1,2,2,3,3,4,4,5,5,6,6],"right_children":[2,4,6,8,10,12,14,-1,-1,-1,-1,-1,-1,-1,-1],"split_conditions":[8.923705E0,6.83229E0,9.42197E0,6.75677E0,1.895054E1,1.571397E1,2.165E0,3.0568896E-3,-8.034337E-3,6.2917853E-3,4.6948012E-4,4.672753E-3,-6.3665984E-3,7.520145E-4,8.756782E-3],"split_indices":[2,1,2,1,0,0,3,0,0,0,0,0,0,0,0],"split_type":[0,0,0,0,0,0,0,0,0,0,0,0,0,0,0],"sum_hessian":[4.1849167E2,3.2479642E2,9.369525E1,1.8156973E2,1.4322668E2,2.0485573E1,7.320968E1,1.793212E2,2.2485373E0,1.2823036E2,1.4996329E1,2.9977279E0,1.7487846E1,6.2216255E1,1.0993424E1],"tree_param":{"num_deleted":"0","num_feature":"5","num_nodes":"15","size_leaf_vector":"0"}}]},"name":"gbtree"},"learner_model_param":{"base_score":"5E-1","boost_from_average":"1","num_class":"0","num_feature":"5","num_target":"1"},"objective":{"name":"binary:logistic","reg_loss_param":{"scale_pos_weight":"1"}}},"version":[1,7,3]}